{"learner":{"attributes":{"best_iteration":"299","best_ntree_limit":"300","scikit_learn":"{\"use_label_encoder\": true, \"n_estimators\": 300, \"objective\": \"binary:logistic\", \"max_depth\": 4, \"learning_rate\": 0.2, \"verbosity\": null, \"booster\": null, \"tree_method\": null, \"gamma\": null, \"min_child_weight\": null, \"max_delta_step\": null, \"subsample\": 0.5, \"colsample_bytree\": null, \"colsample_bylevel\": null, \"colsample_bynode\": null, \"reg_alpha\": null, \"reg_lambda\": null, \"scale_pos_weight\": null, \"base_score\": null, \"missing\": NaN, \"num_parallel_tree\": null, \"random_state\": null, \"n_jobs\": null, \"monotone_constraints\": null, \"interaction_constraints\": null, \"importance_type\": null, \"gpu_id\": null, \"validate_parameters\": null, \"predictor\": null, \"enable_categorical\": false, \"classes_\": [0, 1], \"n_classes_\": 2, \"_le\": {\"classes_\": [0, 1]}, \"_estimator_type\": \"classifier\"}"},"feature_names":["Avg_min_between_sent_tnx","Avg_min_between_received_tnx","Time_Diff_between_first_and_last_(Mins)","Sent_tnx","Received_Tnx","Number_of_Created_Contracts","Unique_Received_From_Addresses","Unique_Sent_To_Addresses","min_value_received","max_value_received","avg_val_received","min_val_sent","max_val_sent","avg_val_sent","min_value_sent_to_contract","max_val_sent_to_contract","avg_value_sent_to_contract","total_transactions_(including_tnx_to_create_contract)","total_Ether_sent","total_ether_received","total_ether_sent_contracts","total_ether_balance","Total_ERC20_tnxs","ERC20_total_Ether_received","ERC20_total_ether_sent","ERC20_total_Ether_sent_contract","ERC20_uniq_sent_addr","ERC20_uniq_rec_addr","ERC20_uniq_sent_addr.1","ERC20_uniq_rec_contract_addr","ERC20_avg_time_between_sent_tnx","ERC20_avg_time_between_rec_tnx","ERC20_avg_time_between_rec_2_tnx","ERC20_avg_time_between_contract_tnx","ERC20_min_val_rec","ERC20_max_val_rec","ERC20_avg_val_rec","ERC20_min_val_sent","ERC20_max_val_sent","ERC20_avg_val_sent","ERC20_min_val_sent_contract","ERC20_max_val_sent_contract","ERC20_avg_val_sent_contract"],"feature_types":["float","float","float","int","int","int","int","int","float","float","float","float","float","float","int","int","int","int","float","float","int","float","float","float","float","float","float","float","float","float","float","float","float","float","float","float","float","float","float","float","float","float","float"],"gradient_booster":{"model":{"gbtree_model_param":{"num_trees":"300","size_leaf_vector":"0"},"tree_info":[0,0,0,0,0,0,0,0,0,0,0,0,0,0,0,0,0,0,0,0,0,0,0,0,0,0,0,0,0,0,0,0,0,0,0,0,0,0,0,0,0,0,0,0,0,0,0,0,0,0,0,0,0,0,0,0,0,0,0,0,0,0,0,0,0,0,0,0,0,0,0,0,0,0,0,0,0,0,0,0,0,0,0,0,0,0,0,0,0,0,0,0,0,0,0,0,0,0,0,0,0,0,0,0,0,0,0,0,0,0,0,0,0,0,0,0,0,0,0,0,0,0,0,0,0,0,0,0,0,0,0,0,0,0,0,0,0,0,0,0,0,0,0,0,0,0,0,0,0,0,0,0,0,0,0,0,0,0,0,0,0,0,0,0,0,0,0,0,0,0,0,0,0,0,0,0,0,0,0,0,0,0,0,0,0,0,0,0,0,0,0,0,0,0,0,0,0,0,0,0,0,0,0,0,0,0,0,0,0,0,0,0,0,0,0,0,0,0,0,0,0,0,0,0,0,0,0,0,0,0,0,0,0,0,0,0,0,0,0,0,0,0,0,0,0,0,0,0,0,0,0,0,0,0,0,0,0,0,0,0,0,0,0,0,0,0,0,0,0,0,0,0,0,0,0,0,0,0,0,0,0,0,0,0,0,0,0,0,0,0,0,0,0,0,0,0,0,0,0,0],"trees":[{"base_weights":[-1.08557455E-1,7.949126E-1,-1.5448799E0,1.264E0,-2.7390182E-1,-1.9066874E0,2.631579E-2,1.5328859E0,-2.6865673E-1,6.1621624E-1,-1.0679612E0,-1.9428571E0,-1.1764706E-1,1E0,-1.5333333E0,1.6153846E0,-1.6190476E0,-1.3513514E0,1E0,1.7183099E0,-6.779661E-2,-1.6770186E0,1.0204082E0,-1.9616E0,2.2222222E-1,9.0909094E-1,-1.2E0,1.4567901E0,-1.1578947E0,-0E0,-1.6428572E0],"categories":[],"categories_nodes":[],"categories_segments":[],"categories_sizes":[],"default_left":[true,true,true,true,true,true,true,true,true,true,true,true,true,true,true,false,false,false,false,false,false,false,false,false,false,false,false,false,false,false,false],"id":0,"left_children":[1,3,5,7,9,11,13,15,17,19,21,23,25,27,29,-1,-1,-1,-1,-1,-1,-1,-1,-1,-1,-1,-1,-1,-1,-1,-1],"loss_changes":[6.64664E2,1.5802626E2,1.1246521E2,9.056082E1,6.9041626E1,1.0173401E1,5.924035E1,5.104605E1,4.736587E1,3.498188E1,6.7216E1,6.8272095E0,5.813904E0,2.5343727E1,2.5190468E0,0E0,0E0,0E0,0E0,0E0,0E0,0E0,0E0,0E0,0E0,0E0,0E0,0E0,0E0,0E0,0E0],"parents":[2147483647,0,0,1,1,2,2,3,3,4,4,5,5,6,6,7,7,8,8,9,9,10,10,11,11,12,12,13,13,14,14],"right_children":[2,4,6,8,10,12,14,16,18,20,22,24,26,28,30,-1,-1,-1,-1,-1,-1,-1,-1,-1,-1,-1,-1,-1,-1,-1,-1],"split_conditions":[3.9832428E1,1.398225E3,1.25E1,6.961E-1,6.03184E0,3.2E1,8.7E1,3.69E2,6.5377E2,8.715E-4,6.5E0,5.964174E1,7.1E1,3.7779502E3,2.1244999E1,3.2307693E-1,-3.2380953E-1,-2.702703E-1,2E-1,3.43662E-1,-1.3559322E-2,-3.3540374E-1,2.0408164E-1,-3.9232E-1,4.4444446E-2,1.8181819E-1,-2.4000001E-1,2.9135802E-1,-2.3157895E-1,-0E0,-3.2857144E-1],"split_indices":[19,1,6,8,19,29,3,17,2,21,6,11,3,1,9,0,0,0,0,0,0,0,0,0,0,0,0,0,0,0,0],"split_type":[0,0,0,0,0,0,0,0,0,0,0,0,0,0,0,0,0,0,0,0,0,0,0,0,0,0,0,0,0,0,0],"sum_hessian":[5.1025E2,3.135E2,1.9675E2,2.1775E2,9.575E1,1.5975E2,3.7E1,1.8525E2,3.25E1,4.525E1,5.05E1,1.565E2,3.25E0,2.3E1,1.4E1,1.81E2,4.25E0,1.75E1,1.5E1,1.675E1,2.85E1,3.925E1,1.125E1,1.5525E2,1.25E0,1.75E0,1.5E0,1.925E1,3.75E0,1E0,1.3E1],"tree_param":{"num_deleted":"0","num_feature":"43","num_nodes":"31","size_leaf_vector":"0"}},{"base_weights":[-1.2746482E-1,6.4771277E-1,-1.2089978E0,1.918847E-1,1.6202883E0,-1.5912914E0,1.4719482E-1,1.2935116E0,-3.168015E-1,1.7240592E0,-1.5848885E-1,-1.6103941E0,-1.8467346E-1,9.626085E-1,-1.0874966E0,1.5296946E0,-9.833271E-1,-7.7841216E-1,1.2415514E0,1.7539885E0,-1.8786448E-1,1.1210679E0,-8.373109E-1,-1.633086E0,-5.135179E-1,1.5336672E0,-6.8704164E-1,-5.049287E-1,-1.6768243E0],"categories":[],"categories_nodes":[],"categories_segments":[],"categories_sizes":[],"default_left":[true,true,true,true,true,true,true,true,true,true,true,true,false,true,true,false,false,false,false,false,false,false,false,false,false,false,false,false,false],"id":1,"left_children":[1,3,5,7,9,11,13,15,17,19,21,23,-1,25,27,-1,-1,-1,-1,-1,-1,-1,-1,-1,-1,-1,-1,-1,-1],"loss_changes":[4.070369E2,1.2511207E2,1.05304565E2,1.08992226E2,1.6913254E1,3.9528809E0,4.683505E1,3.45251E1,9.689872E1,5.208481E0,6.0503464E0,3.04245E0,0E0,2.7356531E1,5.524969E0,0E0,0E0,0E0,0E0,0E0,0E0,0E0,0E0,0E0,0E0,0E0,0E0,0E0,0E0],"parents":[2147483647,0,0,1,1,2,2,3,3,4,4,5,5,6,6,7,7,8,8,9,9,10,10,11,11,13,13,14,14],"right_children":[2,4,6,8,10,12,14,16,18,20,22,24,-1,26,28,-1,-1,-1,-1,-1,-1,-1,-1,-1,-1,-1,-1,-1,-1],"split_conditions":[2.9853235E1,9.3944454E-1,9.5E0,4.20005E-4,2.045E2,5.5500282E1,3.6904883E2,2.2658047E5,6.5E0,3.1E1,3.0801265E0,1.212928E1,-3.6934692E-2,1.8972849E3,2.6364639E3,3.0593893E-1,-1.9666542E-1,-1.5568243E-1,2.4831028E-1,3.507977E-1,-3.7572898E-2,2.2421359E-1,-1.6746219E-1,-3.266172E-1,-1.02703586E-1,3.0673346E-1,-1.3740833E-1,-1.0098574E-1,-3.3536488E-1],"split_indices":[19,34,6,21,24,11,19,2,6,4,34,34,0,1,19,0,0,0,0,0,0,0,0,0,0,0,0,0,0],"split_type":[0,0,0,0,0,0,0,0,0,0,0,0,0,0,0,0,0,0,0,0,0,0,0,0,0,0,0,0,0],"sum_hessian":[4.8356995E2,2.819129E2,2.0165703E2,1.927649E2,8.9148026E1,1.5717737E2,4.4479664E1,6.040565E1,1.3235924E2,8.426302E1,4.885005E0,1.5492848E2,2.2488892E0,2.6920935E1,1.7558731E1,5.5025818E1,5.379833E0,1.02498055E2,2.986118E1,8.304562E1,1.2173942E0,1.46744E0,3.4175649E0,1.5130939E2,3.6190865E0,2.0050402E1,6.8705316E0,9.763756E0,7.7949753E0],"tree_param":{"num_deleted":"0","num_feature":"43","num_nodes":"29","size_leaf_vector":"0"}},{"base_weights":[-1.07127905E-1,4.7127363E-1,-1.2157137E0,9.5001566E-1,-8.175595E-1,-1.2714636E0,4.5671073E-1,5.566865E-1,1.3663199E0,-1.160954E0,2.7568385E-1,-3.9873523E-1,-1.3394473E0,1.1575588E0,-1.0363417E0,1.2021502E0,-1.4560078E-1,1.4754146E0,-1.575022E-1,9.952248E-2,-1.4803921E0,8.6668086E-1,-1.5469924E0,-9.9803466E-1,6.8397874E-1,-1.4368418E0,-8.3358E-1,1.3142599E0,3.9429843E-1],"categories":[],"categories_nodes":[],"categories_segments":[],"categories_sizes":[],"default_left":[true,true,true,true,true,true,true,true,true,true,true,true,true,true,false,false,false,false,false,false,false,false,false,false,false,false,false,false,false],"id":2,"left_children":[1,3,5,7,9,11,13,15,17,19,21,23,25,27,-1,-1,-1,-1,-1,-1,-1,-1,-1,-1,-1,-1,-1,-1,-1],"loss_changes":[3.0455093E2,1.9344156E2,1.5761581E1,3.659633E1,3.227142E1,8.830246E0,7.465691E0,5.411577E1,1.8543213E1,2.630236E1,2.412516E1,9.007681E0,5.9956055E0,2.5701523E-2,0E0,0E0,0E0,0E0,0E0,0E0,0E0,0E0,0E0,0E0,0E0,0E0,0E0,0E0,0E0],"parents":[2147483647,0,0,1,1,2,2,3,3,4,4,5,5,6,6,7,7,8,8,9,9,10,10,11,11,12,12,13,13],"right_children":[2,4,6,8,10,12,14,16,18,20,22,24,26,28,-1,-1,-1,-1,-1,-1,-1,-1,-1,-1,-1,-1,-1,-1,-1],"split_conditions":[3.4528756E0,1.8563431E5,1.09701E1,9.441323E-1,7.5E0,1.679923E1,6.84075E3,1.74365E-2,5E-7,9.5E0,6.4526875E5,9.908197E0,3.5E0,1.254135E3,-2.0726834E-1,2.4043004E-1,-2.9120157E-2,2.9508293E-1,-3.150044E-2,1.9904496E-2,-2.960784E-1,1.7333618E-1,-3.093985E-1,-1.9960694E-1,1.3679574E-1,-2.873684E-1,-1.6671601E-1,2.6285198E-1,7.885969E-2],"split_indices":[10,2,34,23,6,19,0,8,37,17,2,9,29,1,0,0,0,0,0,0,0,0,0,0,0,0,0,0,0],"split_type":[0,0,0,0,0,0,0,0,0,0,0,0,0,0,0,0,0,0,0,0,0,0,0,0,0,0,0,0,0],"sum_hessian":[4.73071E2,3.1125137E2,1.6181964E2,2.2714162E2,8.410974E1,1.5683145E2,4.988195E0,1.179954E2,1.09146225E2,6.3958153E1,2.0151588E1,1.18300705E1,1.4500137E2,3.5476222E0,1.4405729E0,6.111426E1,5.6881134E1,1.0188384E2,7.2623854E0,1.3070699E1,5.0887455E1,1.5613471E1,4.5381174E0,7.6653743E0,4.1646967E0,1.2004814E2,2.4953234E1,2.3444028E0,1.2032193E0],"tree_param":{"num_deleted":"0","num_feature":"43","num_nodes":"29","size_leaf_vector":"0"}},{"base_weights":[-1.2029321E-1,4.158373E-1,-1.0458E0,8.455678E-1,-7.417666E-1,-6.342808E-1,-1.3062751E0,1.1207E0,4.2025527E-1,3.039215E-1,-1.107576E0,-8.225766E-1,9.570185E-1,-1.3479791E0,-3.9313996E-1,1.1885239E0,-1.1145536E0,-2.155769E-1,1.1027601E0,7.640948E-1,-1.3163263E0,-1.335254E0,-2.2863213E-2,-9.496341E-1,5.410746E-1,-1.0010333E-1,1.1766183E0,-1.1242896E0,8.824299E-1],"categories":[],"categories_nodes":[],"categories_segments":[],"categories_sizes":[],"default_left":[true,true,true,true,true,true,true,true,true,true,true,true,true,false,true,false,false,false,false,false,false,false,false,false,false,false,false,false,false],"id":3,"left_children":[1,3,5,7,9,11,13,15,17,19,21,23,25,-1,27,-1,-1,-1,-1,-1,-1,-1,-1,-1,-1,-1,-1,-1,-1],"loss_changes":[2.1883627E2,1.3962726E2,1.6507797E1,2.3428833E1,2.9476723E1,2.0153936E1,3.2058105E0,2.003505E1,3.574661E1,1.6310987E1,1.3960381E1,1.06207695E1,1.8126826E0,0E0,6.3047194E0,0E0,0E0,0E0,0E0,0E0,0E0,0E0,0E0,0E0,0E0,0E0,0E0,0E0,0E0],"parents":[2147483647,0,0,1,1,2,2,3,3,4,4,5,5,6,6,7,7,8,8,9,9,10,10,11,11,12,12,14,14],"right_children":[2,4,6,8,10,12,14,16,18,20,22,24,26,-1,28,-1,-1,-1,-1,-1,-1,-1,-1,-1,-1,-1,-1,-1,-1],"split_conditions":[2.74086E0,1.8712003E5,1.9773333E1,5.7809502E-2,2.00714E-3,1.0754213E1,3.35E1,2.255E2,5E-1,5.521405E5,7.5E0,1.1133423E1,1.6811951E3,-2.6959583E-1,6.64885E-2,2.3770478E-1,-2.2291072E-1,-4.311538E-2,2.2055201E-1,1.5281896E-1,-2.6326525E-1,-2.670508E-1,-4.5726425E-3,-1.8992682E-1,1.08214915E-1,-2.0020667E-2,2.3532367E-1,-2.2485793E-1,1.7648599E-1],"split_indices":[10,2,10,8,21,11,29,4,22,2,6,34,2,0,8,0,0,0,0,0,0,0,0,0,0,0,0,0,0],"split_type":[0,0,0,0,0,0,0,0,0,0,0,0,0,0,0,0,0,0,0,0,0,0,0,0,0,0,0,0,0],"sum_hessian":[4.3915466E2,2.7842084E2,1.6073383E2,2.0324203E2,7.51788E1,6.363436E1,9.709946E1,1.22416504E2,8.082552E1,1.9527489E1,5.5651314E1,5.7333286E1,6.3010745E0,9.24031E1,4.6963625E0,1.1926593E2,3.1505787E0,4.219766E1,3.8627865E1,1.5619685E1,3.9078033E0,4.580583E1,9.845484E0,5.2724335E1,4.608953E0,1.1773995E0,5.123675E0,3.060626E0,1.6357362E0],"tree_param":{"num_deleted":"0","num_feature":"43","num_nodes":"29","size_leaf_vector":"0"}},{"base_weights":[-6.724106E-2,4.3032956E-1,-8.9010805E-1,1.2202542E-1,1.1622517E0,-1.1601995E0,3.9015725E-2,9.389384E-1,-2.350695E-1,1.2776394E0,-8.3456653E-1,-1.1889147E0,8.4477323E-1,1.0304365E0,-6.9314224E-1,1.1184325E0,-1.1922804E0,-7.5733054E-1,5.5506957E-1,1.3207301E0,3.615649E-1,-1.0417676E-1,-1.3001193E0,-1.2071084E0,-7.161293E-2,1.3766699E0,-7.77806E-1,6.843633E-2,-1.1131316E0],"categories":[],"categories_nodes":[],"categories_segments":[],"categories_sizes":[],"default_left":[true,true,true,true,true,true,true,true,true,true,true,true,false,true,true,false,false,false,false,false,false,false,false,false,false,false,false,false,false],"id":4,"left_children":[1,3,5,7,9,11,13,15,17,19,21,23,-1,25,27,-1,-1,-1,-1,-1,-1,-1,-1,-1,-1,-1,-1,-1,-1],"loss_changes":[1.6152094E2,5.535413E1,3.7343475E1,5.1025986E1,1.7833733E1,7.636032E0,2.571503E1,2.1674778E1,5.0759068E1,2.2537918E0,1.4220502E0,2.230423E0,0E0,1.048245E1,6.6042156E0,0E0,0E0,0E0,0E0,0E0,0E0,0E0,0E0,0E0,0E0,0E0,0E0,0E0,0E0],"parents":[2147483647,0,0,1,1,2,2,3,3,4,4,5,5,6,6,7,7,8,8,9,9,10,10,11,11,13,13,14,14],"right_children":[2,4,6,8,10,12,14,16,18,20,22,24,-1,26,28,-1,-1,-1,-1,-1,-1,-1,-1,-1,-1,-1,-1,-1,-1],"split_conditions":[3.3098366E1,9.83209E-1,1.25E1,4.20003E-4,3.5E0,7.9580156E3,1.095E2,6.89273E3,3.5E0,9.95E1,1.3004363E1,5.964174E1,1.6895466E-1,4.30974E3,4.8227415E0,2.236865E-1,-2.3845609E-1,-1.5146612E-1,1.1101391E-1,2.6414603E-1,7.231298E-2,-2.0835353E-2,-2.6002386E-1,-2.4142168E-1,-1.4322586E-2,2.7533397E-1,-1.555612E-1,1.3687267E-2,-2.2262633E-1],"split_indices":[19,34,6,21,22,9,17,0,6,24,34,11,0,1,10,0,0,0,0,0,0,0,0,0,0,0,0,0,0],"split_type":[0,0,0,0,0,0,0,0,0,0,0,0,0,0,0,0,0,0,0,0,0,0,0,0,0,0,0,0,0],"sum_hessian":[3.9256216E2,2.4493317E2,1.4762898E2,1.7316035E2,7.177281E1,1.14186775E2,3.3442207E1,5.217413E1,1.2098623E2,6.819242E1,3.58039E0,1.1297575E2,1.2110184E0,1.4032837E1,1.940937E1,4.855959E1,3.6145396E0,7.286555E1,4.8120678E1,6.470698E1,3.4854426E0,1.8701484E0,1.7102416E0,1.1108649E2,1.8892654E0,1.1978015E1,2.0548222E0,7.196609E0,1.2212761E1],"tree_param":{"num_deleted":"0","num_feature":"43","num_nodes":"29","size_leaf_vector":"0"}},{"base_weights":[-6.366925E-2,3.6814633E-1,-8.6103266E-1,6.0674936E-1,-7.156521E-1,-1.124342E0,-2.5754476E-2,2.8269428E-1,1.0660472E0,-9.4711804E-1,9.2599916E-1,-1.1969815E0,-4.2257506E-1,4.9352372E-1,-1.2831506E0,1.1585345E0,-7.519819E-2,1.2128637E0,-4.716241E-1,-1.1196698E0,3.359571E-1,1.1495471E0,7.973867E-3,1.2406939E0,-9.4963634E-1,1.1120182E0,-1.0938729E0],"categories":[],"categories_nodes":[],"categories_segments":[],"categories_sizes":[],"default_left":[true,true,true,true,true,true,true,true,true,true,true,false,true,true,false,false,false,false,false,false,false,false,false,false,false,false,false],"id":5,"left_children":[1,3,5,7,9,11,13,15,17,19,21,-1,23,25,-1,-1,-1,-1,-1,-1,-1,-1,-1,-1,-1,-1,-1],"loss_changes":[1.2357058E2,6.066504E1,2.769522E1,2.8190582E1,1.702027E1,4.3786545E0,2.1028692E1,3.5695927E1,1.8368118E1,8.729088E0,1.1719851E0,0E0,1.0412376E1,2.36298E1,0E0,0E0,0E0,0E0,0E0,0E0,0E0,0E0,0E0,0E0,0E0,0E0,0E0],"parents":[2147483647,0,0,1,1,2,2,3,3,4,4,5,5,6,6,7,7,8,8,9,9,10,10,12,12,13,13],"right_children":[2,4,6,8,10,12,14,16,18,20,22,-1,24,26,-1,-1,-1,-1,-1,-1,-1,-1,-1,-1,-1,-1,-1],"split_conditions":[3.9603775E1,1.9866475E5,9.5E0,9.3195E-1,1.368104E0,1.1005509E3,2.2232773E3,2.310125E-4,4.5E0,9.7581697E-1,6.1909467E2,-2.3939632E-1,5.919239E4,2.854195E3,-2.5663012E-1,2.317069E-1,-1.5039638E-2,2.4257274E-1,-9.432482E-2,-2.2393396E-1,6.719142E-2,2.2990942E-1,1.5947734E-3,2.4813879E-1,-1.8992727E-1,2.2240365E-1,-2.1877459E-1],"split_indices":[19,2,6,35,11,35,19,21,22,34,23,0,2,1,0,0,0,0,0,0,0,0,0,0,0,0,0],"split_type":[0,0,0,0,0,0,0,0,0,0,0,0,0,0,0,0,0,0,0,0,0,0,0,0,0,0,0],"sum_hessian":[3.5696866E2,2.319133E2,1.2505535E2,1.9042957E2,4.1483746E1,9.481898E1,3.0236374E1,1.1260044E2,7.7829124E1,3.6728283E1,4.755463E0,8.528544E1,9.533535E0,2.1828972E1,8.407403E0,3.2015205E1,8.058523E1,7.1238525E1,6.5906014E0,3.2486725E1,4.2415586E0,3.621418E0,1.1340451E0,1.9682533E0,7.565282E0,1.5924001E1,5.9049697E0],"tree_param":{"num_deleted":"0","num_feature":"43","num_nodes":"27","size_leaf_vector":"0"}},{"base_weights":[-7.249432E-2,2.7788323E-1,-8.0805355E-1,6.34371E-1,-4.175256E-1,-1.0720942E0,-2.549955E-1,2.7951267E-1,1.0036625E0,4.1293257E-1,-8.2410234E-1,-1.1379395E0,-4.6544498E-1,1.1624486E0,-7.2655E-1,1.0889187E0,-1.0475097E-1,1.0875919E0,-1.0059844E0,-9.205777E-1,7.346025E-1,-1.09987E0,-8.477178E-2,-1.1499615E0,-2.2597127E-1,-8.0758214E-1,9.0927106E-1,1.5049129E0,-7.2416365E-1,-9.6965754E-1,1.21768415E-1],"categories":[],"categories_nodes":[],"categories_segments":[],"categories_sizes":[],"default_left":[true,true,true,true,true,true,true,true,true,true,true,true,true,true,true,false,false,false,false,false,false,false,false,false,false,false,false,false,false,false,false],"id":6,"left_children":[1,3,5,7,9,11,13,15,17,19,21,23,25,27,29,-1,-1,-1,-1,-1,-1,-1,-1,-1,-1,-1,-1,-1,-1,-1,-1],"loss_changes":[8.588171E1,5.6258778E1,1.5423676E1,1.9339523E1,2.6389595E1,2.3641434E0,2.4938816E1,2.4292356E1,1.340374E1,1.1838871E1,1.0534565E1,4.4904327E-1,4.866404E0,7.1522846E0,5.823352E0,0E0,0E0,0E0,0E0,0E0,0E0,0E0,0E0,0E0,0E0,0E0,0E0,0E0,0E0,0E0,0E0],"parents":[2147483647,0,0,1,1,2,2,3,3,4,4,5,5,6,6,7,7,8,8,9,9,10,10,11,11,12,12,13,13,14,14],"right_children":[2,4,6,8,10,12,14,16,18,20,22,24,26,28,30,-1,-1,-1,-1,-1,-1,-1,-1,-1,-1,-1,-1,-1,-1,-1,-1],"split_conditions":[3.452579E0,1.0315855E5,5E-1,5E-1,2.6909201E-3,3.5E0,5.3928117E4,4.2001E-4,6.6155E3,1.5E0,6.5E0,4.6736603E1,1.1197796E0,5.161E3,3.4E1,2.1778373E-1,-2.0950194E-2,2.1751837E-1,-2.011969E-1,-1.8411554E-1,1.469205E-1,-2.19974E-1,-1.6954357E-2,-2.299923E-1,-4.5194253E-2,-1.6151643E-1,1.8185422E-1,3.0098256E-1,-1.4483273E-1,-1.939315E-1,2.4353683E-2],"split_indices":[10,2,22,22,21,6,2,21,17,6,6,11,11,17,6,0,0,0,0,0,0,0,0,0,0,0,0,0,0,0,0],"split_type":[0,0,0,0,0,0,0,0,0,0,0,0,0,0,0,0,0,0,0,0,0,0,0,0,0,0,0,0,0,0,0],"sum_hessian":[3.3136078E2,2.2486867E2,1.064921E2,1.4871869E2,7.614996E1,7.144459E1,3.504752E1,7.673737E1,7.198132E1,2.50231E1,5.1126865E1,6.3659283E1,7.7853045E0,8.383236E0,2.6664284E1,2.4112808E1,5.2624565E1,6.953609E1,2.4452379E0,4.501184E0,2.0521915E1,3.688226E1,1.4244606E1,6.257344E1,1.0858399E0,6.5641704E0,1.2211342E0,7.266514E0,1.1167219E0,2.0613825E1,6.05046E0],"tree_param":{"num_deleted":"0","num_feature":"43","num_nodes":"31","size_leaf_vector":"0"}},{"base_weights":[1.3580289E-2,3.7223142E-1,-6.6729E-1,6.4067715E-1,-2.3804261E-1,-1.034837E0,1.07111216E-1,7.161926E-1,-1.461983E0,9.8934776E-1,-5.34649E-1,-1.0603693E0,3.494521E-1,5.570489E-1,-1.2308406E0,3.6586884E-1,1.156056E0,-5.091275E-1,1.1956857E0,-8.3175844E-1,7.8550583E-1,-1.0809712E0,1.834085E-1,9.237363E-1,-1.020588E0],"categories":[],"categories_nodes":[],"categories_segments":[],"categories_sizes":[],"default_left":[true,true,true,true,true,true,true,true,false,true,true,true,false,true,false,false,false,false,false,false,false,false,false,false,false],"id":7,"left_children":[1,3,5,7,9,11,13,15,-1,17,19,21,-1,23,-1,-1,-1,-1,-1,-1,-1,-1,-1,-1,-1],"loss_changes":[7.650498E1,3.3766033E1,3.0878868E1,2.3716305E1,2.3613668E1,2.9647903E0,2.2176153E1,2.0917587E1,0E0,4.5330353E0,2.0938915E1,2.0513687E0,0E0,1.6795574E1,0E0,0E0,0E0,0E0,0E0,0E0,0E0,0E0,0E0,0E0,0E0],"parents":[2147483647,0,0,1,1,2,2,3,3,4,4,5,5,6,6,7,7,9,9,10,10,11,11,13,13],"right_children":[2,4,6,8,10,12,14,16,-1,18,20,22,-1,24,-1,-1,-1,-1,-1,-1,-1,-1,-1,-1,-1],"split_conditions":[3.3708656E1,1.59113E3,9.5E0,1.905E2,5.0490516E-1,2.972524E3,5.725308E5,1.5E0,-2.923966E-1,1.5E0,9.88209E-1,4.9568996E1,6.9890425E-2,3.3475E3,-2.4616812E-1,7.317377E-2,2.3121122E-1,-1.018255E-1,2.3913716E-1,-1.6635169E-1,1.5710117E-1,-2.1619426E-1,3.66817E-2,1.8474726E-1,-2.0411761E-1],"split_indices":[19,1,6,17,19,9,2,6,0,6,34,11,0,17,0,0,0,0,0,0,0,0,0,0,0],"split_type":[0,0,0,0,0,0,0,0,0,0,0,0,0,0,0,0,0,0,0,0,0,0,0,0,0],"sum_hessian":[3.1127765E2,2.041789E2,1.0709875E2,1.4176837E2,6.2410515E1,7.239992E1,3.469883E1,1.3748991E2,4.2784615E0,1.169203E1,5.0718487E1,7.13185E1,1.0814208E0,2.6403345E1,8.295484E0,7.755443E1,5.993549E1,1.2375084E0,1.0454522E1,4.1702923E1,9.015561E0,7.0285194E1,1.0333081E0,2.1760153E1,4.643193E0],"tree_param":{"num_deleted":"0","num_feature":"43","num_nodes":"25","size_leaf_vector":"0"}},{"base_weights":[-7.121483E-2,1.2878725E-1,-8.9223206E-1,5.8954525E-1,-5.4545426E-1,-1.0519693E0,-3.371853E-1,7.771128E-1,-9.489769E-1,5.626219E-2,-8.3960533E-1,-1.0809168E0,4.1349187E-2,1.1256584E0,-8.6622036E-1,3.1128514E-1,1.0607684E0,-1.1635342E0,1.4340578E-1,8.6686915E-1,-3.1582552E-1,-1.0927061E0,-2.642349E-1,-1.1008759E0,-2.990998E-1,1.346104E0,3.2371715E-1,-1.0628746E0,5.0055194E-1],"categories":[],"categories_nodes":[],"categories_segments":[],"categories_sizes":[],"default_left":[true,true,true,true,true,true,true,true,true,true,true,true,false,true,true,false,false,false,false,false,false,false,false,false,false,false,false,false,false],"id":8,"left_children":[1,3,5,7,9,11,13,15,17,19,21,23,-1,25,27,-1,-1,-1,-1,-1,-1,-1,-1,-1,-1,-1,-1,-1,-1],"loss_changes":[4.7485477E1,7.265873E1,4.66671E0,4.0792824E1,1.6869816E1,1.4216499E0,1.1909034E1,1.6090118E1,3.807558E0,9.969116E0,9.016914E0,3.32695E-1,0E0,3.0450058E-1,3.4727983E0,0E0,0E0,0E0,0E0,0E0,0E0,0E0,0E0,0E0,0E0,0E0,0E0,0E0,0E0],"parents":[2147483647,0,0,1,1,2,2,3,3,4,4,5,5,6,6,7,7,8,8,9,9,10,10,11,11,13,13,14,14],"right_children":[2,4,6,8,10,12,14,16,18,20,22,24,-1,26,28,-1,-1,-1,-1,-1,-1,-1,-1,-1,-1,-1,-1,-1,-1],"split_conditions":[1.0000285E0,1.296045E3,6.0853E2,3.51E2,4.4871473E0,4.0150003E0,5.77773E3,1.00156995E3,1.80275E2,6.6150003E-4,3.7854998E-3,4.518109E-3,8.269838E-3,1.5E0,4.69997E2,6.225703E-2,2.1215367E-1,-2.3270683E-1,2.8681157E-2,1.7337383E-1,-6.3165106E-2,-2.1854122E-1,-5.284698E-2,-2.2017518E-1,-5.9819963E-2,2.692208E-1,6.474343E-2,-2.1257491E-1,1.0011039E-1],"split_indices":[8,1,2,17,19,1,2,2,0,8,11,21,0,4,12,0,0,0,0,0,0,0,0,0,0,0,0,0,0],"split_type":[0,0,0,0,0,0,0,0,0,0,0,0,0,0,0,0,0,0,0,0,0,0,0,0,0,0,0,0,0],"sum_hessian":[2.8748407E2,2.318483E2,5.5635754E1,1.378031E2,9.4045204E1,4.2507275E1,1.3128476E1,1.23269684E2,1.4533417E1,3.114454E1,6.2900665E1,4.1421906E1,1.0853719E0,3.1873431E0,9.9411335E0,4.7447453E1,7.582223E1,1.2093059E1,2.4403584E0,9.380036E0,2.1764503E1,4.305985E1,1.9840816E1,3.999283E1,1.4290758E0,1.967845E0,1.2194982E0,8.8850765E0,1.0560572E0],"tree_param":{"num_deleted":"0","num_feature":"43","num_nodes":"29","size_leaf_vector":"0"}},{"base_weights":[-8.512148E-2,-2.7720997E-1,7.830974E-1,9.0116036E-1,-4.0576887E-1,9.779561E-1,-3.723552E-1,1.0465336E0,-8.4817713E-1,-8.616565E-1,-8.304096E-3,1.0638546E0,-5.557944E-1,-8.2402045E-1,8.719649E-1,1.0922467E0,1.03479415E-1,-6.452721E-1,-1.2665256E0,6.294541E-1,-5.249272E-1,1.1172963E0,-2.0121342E-2,1.9722952E-2,-1.4628291E0],"categories":[],"categories_nodes":[],"categories_segments":[],"categories_sizes":[],"default_left":[true,true,true,true,true,true,true,true,false,true,true,true,false,true,false,false,false,false,false,false,false,false,false,false,false],"id":9,"left_children":[1,3,5,7,9,11,13,15,-1,17,19,21,-1,23,-1,-1,-1,-1,-1,-1,-1,-1,-1,-1,-1],"loss_changes":[4.278089E1,3.2136116E1,1.0833025E1,6.2128353E0,3.4380806E1,5.8694954E0,4.8966103E0,7.3973465E-1,0E0,6.925812E0,3.406793E1,2.2401161E0,0E0,3.2457838E0,0E0,0E0,0E0,0E0,0E0,0E0,0E0,0E0,0E0,0E0,0E0],"parents":[2147483647,0,0,1,1,2,2,3,3,4,4,5,5,6,6,7,7,9,9,10,10,11,11,13,13],"right_children":[2,4,6,8,10,12,14,16,-1,18,20,22,-1,24,-1,-1,-1,-1,-1,-1,-1,-1,-1,-1,-1],"split_conditions":[1.2833431E0,9.765E-4,1.083903E0,3.125E2,2.5E0,2.2519412E2,9.5E0,4.01833E-11,-1.6963543E-1,4.5E0,1.2470241E5,3.5878437E1,-1.11158885E-1,7.469325E-1,1.7439298E-1,2.1844934E-1,2.0695884E-2,-1.2905441E-1,-2.5330514E-1,1.2589082E-1,-1.0498544E-1,2.2345927E-1,-4.0242686E-3,3.94459E-3,-2.9256582E-1],"split_indices":[34,9,24,4,6,19,6,23,0,17,2,21,0,10,0,0,0,0,0,0,0,0,0,0,0],"split_type":[0,0,0,0,0,0,0,0,0,0,0,0,0,0,0,0,0,0,0,0,0,0,0,0,0],"sum_hessian":[2.5421718E2,2.0871982E2,4.549736E1,1.9940016E1,1.887798E2,3.9063244E1,6.434116E0,1.878103E1,1.1589847E0,8.738375E1,1.0139606E2,3.7281635E1,1.7816075E0,4.9684386E0,1.4656773E0,1.7761852E1,1.0191798E0,5.8638096E1,2.8745655E1,4.5280285E1,5.611577E1,3.550066E1,1.7809767E0,2.5584042E0,2.4100344E0],"tree_param":{"num_deleted":"0","num_feature":"43","num_nodes":"25","size_leaf_vector":"0"}},{"base_weights":[5.5501062E-2,2.3248947E-1,-9.647535E-1,5.230223E-1,-2.3375922E-1,-1.0395426E0,8.109285E-2,6.096931E-1,-9.523969E-1,-4.5856625E-2,-9.426422E-1,-1.0632541E0,-1.5755264E-1,7.4926394E-1,-6.2753785E-1,3.0451062E-1,1.0848092E0,-1.1514452E0,-1.809859E-1,1.9926928E-1,-7.695567E-1,-1.0934224E0,6.5781915E-1],"categories":[],"categories_nodes":[],"categories_segments":[],"categories_sizes":[],"default_left":[true,true,true,true,true,true,true,true,true,true,true,false,false,false,false,false,false,false,false,false,false,false,false],"id":10,"left_children":[1,3,5,7,9,11,13,15,17,19,21,-1,-1,-1,-1,-1,-1,-1,-1,-1,-1,-1,-1],"loss_changes":[4.388419E1,2.8141966E1,2.895237E0,1.6916359E1,1.0626324E1,5.354042E-1,2.045017E0,1.7253227E1,9.3986416E-1,1.1572217E1,4.757099E0,0E0,0E0,0E0,0E0,0E0,0E0,0E0,0E0,0E0,0E0,0E0,0E0],"parents":[2147483647,0,0,1,1,2,2,3,3,4,4,5,5,6,6,7,7,8,8,9,9,10,10],"right_children":[2,4,6,8,10,12,14,16,18,20,22,-1,-1,-1,-1,-1,-1,-1,-1,-1,-1,-1,-1],"split_conditions":[2.09432E1,1.296045E3,3.6E1,8.43E2,4.8E1,2.774354E0,2.53E2,2.5E0,1.1141937E2,2.696912E0,7.7E1,-2.1265082E-1,-3.151053E-2,1.498528E-1,-1.2550758E-1,6.0902126E-2,2.1696185E-1,-2.3028903E-1,-3.619718E-2,3.9853856E-2,-1.5391134E-1,-2.1868448E-1,1.3156383E-1],"split_indices":[10,1,29,17,4,34,17,6,21,10,6,0,0,0,0,0,0,0,0,0,0,0,0],"split_type":[0,0,0,0,0,0,0,0,0,0,0,0,0,0,0,0,0,0,0,0,0,0,0],"sum_hessian":[2.4078497E2,2.0584772E2,3.4937256E1,1.2674656E2,7.910115E1,3.2611237E1,2.3260193E0,1.2026838E2,6.4781785E0,6.336877E1,1.5732381E1,3.1557325E1,1.0539113E0,1.1676738E0,1.1583455E0,7.422937E1,4.6039013E1,4.757855E0,1.7203237E0,4.7876934E1,1.5491839E1,1.4667369E1,1.0650121E0],"tree_param":{"num_deleted":"0","num_feature":"43","num_nodes":"23","size_leaf_vector":"0"}},{"base_weights":[-9.563854E-2,1.0802876E0,-2.3501526E-1,-9.357815E-1,-4.730021E-2,-1.061993E0,5.554091E-1,5.6634396E-1,-4.203578E-1,4.2912903E-1,-1.1318718E0,1.1670601E0,-5.288859E-1,2.3446518E-1,1.184206E0,-6.638677E-1,5.6576256E-2],"categories":[],"categories_nodes":[],"categories_segments":[],"categories_sizes":[],"default_left":[true,false,true,true,true,true,true,true,true,false,false,false,false,false,false,false,false],"id":11,"left_children":[1,-1,3,5,7,9,11,13,15,-1,-1,-1,-1,-1,-1,-1,-1],"loss_changes":[3.8192905E1,0E0,2.7287182E1,8.841595E0,3.799441E1,4.733494E0,3.3217697E0,1.2596405E1,1.2016727E1,0E0,0E0,0E0,0E0,0E0,0E0,0E0,0E0],"parents":[2147483647,0,0,2,2,3,3,4,4,5,5,6,6,7,7,8,8],"right_children":[2,-1,4,6,8,10,12,14,16,-1,-1,-1,-1,-1,-1,-1,-1],"split_conditions":[1.47E0,2.1605752E-1,3.897E2,4.195909E-3,4.329488E4,3.675E-4,2.5E0,2.0283499E2,7.5E0,8.582581E-2,-2.2637437E-1,2.3341203E-1,-1.0577718E-1,4.6893038E-2,2.368412E-1,-1.3277355E-1,1.1315252E-2],"split_indices":[2,0,2,21,2,21,3,0,6,0,0,0,0,0,0,0,0],"split_type":[0,0,0,0,0,0,0,0,0,0,0,0,0,0,0,0,0],"sum_hessian":[2.3048128E2,2.3707705E1,2.0677357E2,4.28444E1,1.6392917E2,3.976646E1,3.0779355E0,6.1783348E1,1.0214583E2,1.55002E0,3.8216442E1,1.9190614E0,1.1588739E0,4.1091118E1,2.069223E1,6.736109E1,3.478474E1],"tree_param":{"num_deleted":"0","num_feature":"43","num_nodes":"17","size_leaf_vector":"0"}},{"base_weights":[-2.0154033E-2,1.1008863E0,-1.2602016E-1,-9.2868954E-1,7.954312E-2,4.3625614E-1,-1.0412551E0,5.7607484E-1,-2.7451608E-1,-3.9288634E-1,9.612004E-1,-1.1118056E0,4.1266462E-1,8.008139E-1,-9.073862E-1,-5.657369E-1,8.143726E-2],"categories":[],"categories_nodes":[],"categories_segments":[],"categories_sizes":[],"default_left":[true,false,true,true,true,true,true,true,true,false,false,false,false,false,false,false,false],"id":12,"left_children":[1,-1,3,5,7,9,11,13,15,-1,-1,-1,-1,-1,-1,-1,-1],"loss_changes":[2.601422E1,0E0,3.309211E1,6.735073E0,2.8327326E1,2.0399222E0,4.3627434E0,2.3070478E1,9.81229E0,0E0,0E0,0E0,0E0,0E0,0E0,0E0,0E0],"parents":[2147483647,0,0,2,2,3,3,4,4,5,5,6,6,7,7,8,8],"right_children":[2,-1,4,6,8,10,12,14,16,-1,-1,-1,-1,-1,-1,-1,-1],"split_conditions":[6.75E-1,2.2017728E-1,4.85785E2,4.84695E-2,6.1354004E2,3.863E1,5E-1,3.97E2,3.40045E2,-7.857727E-2,1.9224009E-1,-2.2236112E-1,8.253293E-2,1.6016279E-1,-1.8147723E-1,-1.1314738E-1,1.6287452E-2],"split_indices":[2,0,2,13,1,2,22,17,0,0,0,0,0,0,0,0,0],"split_type":[0,0,0,0,0,0,0,0,0,0,0,0,0,0,0,0,0],"sum_hessian":[2.1702696E2,1.7915615E1,1.9911134E2,3.987855E1,1.5923279E2,2.819106E0,3.7059444E1,6.6019775E1,9.321302E1,1.1904197E0,1.6286864E0,3.5568798E1,1.4906489E0,5.7733524E1,8.28625E0,5.0944096E1,4.2268925E1],"tree_param":{"num_deleted":"0","num_feature":"43","num_nodes":"17","size_leaf_vector":"0"}},{"base_weights":[-1.1701402E-2,1.7944723E-1,-5.0040096E-1,2.785809E-1,-7.3892593E-1,-7.6498485E-1,1.1131032E-1,5.055708E-2,7.2787434E-1,-9.1515744E-1,5.5176646E-1,-8.675433E-1,5.531884E-1,7.9539895E-1,-8.0132747E-1,1.6166268E-1,-1.352778E0,1.0188395E0,-3.5560134E-1,-1.0280442E0,1.3234542E-1,-9.0784997E-1,2.3869804E-1,-1.5729518E-1,9.9476224E-1,1.1033957E0,-7.1676123E-1,-9.176096E-1,-1.1676192E-1],"categories":[],"categories_nodes":[],"categories_segments":[],"categories_sizes":[],"default_left":[true,true,true,true,true,true,true,true,true,true,false,true,true,true,true,false,false,false,false,false,false,false,false,false,false,false,false,false,false],"id":13,"left_children":[1,3,5,7,9,11,13,15,17,19,-1,21,23,25,27,-1,-1,-1,-1,-1,-1,-1,-1,-1,-1,-1,-1,-1,-1],"loss_changes":[1.9300535E1,1.3731504E1,9.486236E0,1.3775173E1,3.8595943E0,5.978697E0,1.2131835E1,1.4330035E1,1.4647261E1,1.7149868E0,0E0,1.9167767E0,1.2692143E0,5.925663E0,5.6040716E-1,0E0,0E0,0E0,0E0,0E0,0E0,0E0,0E0,0E0,0E0,0E0,0E0,0E0,0E0],"parents":[2147483647,0,0,1,1,2,2,3,3,4,4,5,5,6,6,7,7,8,8,9,9,11,11,12,12,13,13,14,14],"right_children":[2,4,6,8,10,12,14,16,18,20,-1,22,24,26,28,-1,-1,-1,-1,-1,-1,-1,-1,-1,-1,-1,-1,-1,-1],"split_conditions":[3.6674007E1,3.55E1,1.75E1,9.7173846E-1,4.391088E3,3.15E1,2.445E2,6.4E-10,4.5E0,9.4444454E-1,1.1035329E-1,6.663079E1,2.33E2,6.642515E5,7.258E-3,3.2332536E-2,-2.705556E-1,2.037679E-1,-7.112027E-2,-2.0560884E-1,2.6469085E-2,-1.8157E-1,4.7739606E-2,-3.1459037E-2,1.9895245E-1,2.2067915E-1,-1.4335226E-1,-1.8352191E-1,-2.3352385E-2],"split_indices":[19,17,6,35,39,29,17,23,22,34,0,11,9,2,11,0,0,0,0,0,0,0,0,0,0,0,0,0,0],"split_type":[0,0,0,0,0,0,0,0,0,0,0,0,0,0,0,0,0,0,0,0,0,0,0,0,0,0,0,0,0],"sum_hessian":[2.0465103E2,1.4756548E2,5.7085556E1,1.3381725E2,1.3748226E1,3.9674538E1,1.7411016E1,8.950468E1,4.4312572E1,1.235256E1,1.3956659E0,3.712773E1,2.5468063E0,1.0025005E1,7.3860116E0,8.375813E1,5.7465434E0,3.4978756E1,9.333818E0,1.1167629E1,1.1849313E0,3.599555E1,1.1321856E0,1.2229267E0,1.3238795E0,8.553206E0,1.4717989E0,6.022575E0,1.3634365E0],"tree_param":{"num_deleted":"0","num_feature":"43","num_nodes":"29","size_leaf_vector":"0"}},{"base_weights":[-1.6653858E-2,-1.5856795E-1,7.4516165E-1,-2.8509903E-1,4.584449E-1,9.117855E-1,-4.9972445E-1,9.4190514E-1,-3.7769166E-1,1.1526351E0,-7.0435464E-1,9.8988813E-1,-1.1377556E-1,1.9200875E-1,-1.1959416E0,-6.135784E-1,4.612647E-2,1.2138754E0,9.1089286E-2,-8.6663246E-1,3.7458798E-1,1.0528823E0,5.3772707E-2],"categories":[],"categories_nodes":[],"categories_segments":[],"categories_sizes":[],"default_left":[true,true,true,true,true,true,true,false,true,true,true,true,false,false,false,false,false,false,false,false,false,false,false],"id":14,"left_children":[1,3,5,7,9,11,13,-1,15,17,19,21,-1,-1,-1,-1,-1,-1,-1,-1,-1,-1,-1],"loss_changes":[2.1296032E1,1.3086761E1,6.8726234E0,1.6071373E1,2.3917202E1,2.326414E0,2.2994614E0,0E0,1.2958359E1,1.0792885E0,2.3068151E0,1.4639416E0,0E0,0E0,0E0,0E0,0E0,0E0,0E0,0E0,0E0,0E0,0E0],"parents":[2147483647,0,0,1,1,2,2,3,3,4,4,5,5,6,6,8,8,9,9,10,10,11,11],"right_children":[2,4,6,8,10,12,14,-1,16,18,20,22,-1,-1,-1,-1,-1,-1,-1,-1,-1,-1,-1],"split_conditions":[1.278276E0,2.3985791E0,1.0529193E2,6.75E-1,3.4549909E0,3.5878437E1,4.30695E-2,1.8838103E-1,2.7133502E2,1.0702008E2,9.9875E-3,3.5301834E1,-2.2755112E-2,3.840175E-2,-2.3918831E-1,-1.22715674E-1,9.225294E-3,2.4277508E-1,1.8217858E-2,-1.7332649E-1,7.49176E-2,2.1057646E-1,1.07545415E-2],"split_indices":[34,11,24,2,8,21,8,0,0,12,21,13,0,0,0,0,0,0,0,0,0,0,0],"split_type":[0,0,0,0,0,0,0,0,0,0,0,0,0,0,0,0,0,0,0,0,0,0,0],"sum_hessian":[1.9488762E2,1.6495161E2,2.9936003E1,1.373277E2,2.7623915E1,2.6638151E1,3.297852E0,8.992308E0,1.283354E2,1.7302864E1,1.0321051E1,2.4785378E1,1.8527721E0,2.0175283E0,1.2803235E0,8.215963E1,4.6175766E1,1.622344E1,1.0794244E0,9.142721E0,1.17833E0,2.3105782E1,1.6795964E0],"tree_param":{"num_deleted":"0","num_feature":"43","num_nodes":"23","size_leaf_vector":"0"}},{"base_weights":[-5.440939E-2,1.0209649E0,-1.3778757E-1,-8.396455E-1,2.1676522E-2,-9.7297627E-1,3.0807933E-1,4.1748774E-1,-2.951034E-1,-3.2916177E-2,-1.0605716E0,-2.6567402E-1,8.814282E-1,-4.6379596E-1,6.717991E-1,-8.722686E-1,-8.4476836E-2],"categories":[],"categories_nodes":[],"categories_segments":[],"categories_sizes":[],"default_left":[true,false,true,true,true,true,true,true,true,false,false,false,false,false,false,false,false],"id":15,"left_children":[1,-1,3,5,7,9,11,13,15,-1,-1,-1,-1,-1,-1,-1,-1],"loss_changes":[1.6271242E1,0E0,1.8802914E1,5.0586853E0,1.7393763E1,2.2791824E0,1.5487726E0,1.4127722E1,9.298365E0,0E0,0E0,0E0,0E0,0E0,0E0,0E0,0E0],"parents":[2147483647,0,0,2,2,3,3,4,4,5,5,6,6,7,7,8,8],"right_children":[2,-1,4,6,8,10,12,14,16,-1,-1,-1,-1,-1,-1,-1,-1],"split_conditions":[1.4449999E0,2.0419298E-1,4.8094E2,4.953835E-3,9.5881E2,4.66188E-4,9.5E0,2.8024852E-1,2.5E0,-6.5832357E-3,-2.1211432E-1,-5.3134806E-2,1.7628564E-1,-9.275919E-2,1.3435982E-1,-1.7445372E-1,-1.6895367E-2],"split_indices":[2,0,2,21,1,21,1,10,6,0,0,0,0,0,0,0,0],"split_type":[0,0,0,0,0,0,0,0,0,0,0,0,0,0,0,0,0],"sum_hessian":[1.7890266E2,1.2063828E1,1.6683884E2,3.0098639E1,1.3674019E2,2.7102419E1,2.9962199E0,6.0646053E1,7.609414E1,2.4274263E0,2.4674992E1,1.7658008E0,1.2304192E0,1.339694E1,4.7249115E1,1.9504908E1,5.6589233E1],"tree_param":{"num_deleted":"0","num_feature":"43","num_nodes":"17","size_leaf_vector":"0"}},{"base_weights":[-1.13000125E-2,6.6030905E-2,-1.074703E0,2.4479802E-1,-3.4112692E-1,7.796124E-1,9.985401E-2,-6.5216017E-1,3.1040213E-1,8.965832E-1,-6.239183E-1,-9.320566E-1,2.8965944E-1,-2.4491285E-1,-9.42333E-1,1.0941925E0,-1.748996E-1],"categories":[],"categories_nodes":[],"categories_segments":[],"categories_sizes":[],"default_left":[true,true,false,true,true,true,true,true,true,false,false,false,false,false,false,false,false],"id":16,"left_children":[1,3,-1,5,7,9,11,13,15,-1,-1,-1,-1,-1,-1,-1,-1],"loss_changes":[1.4265553E1,1.1864207E1,0E0,8.685846E0,1.02941675E1,4.4928503E0,1.7916012E1,3.790639E0,6.5699844E0,0E0,0E0,0E0,0E0,0E0,0E0,0E0,0E0],"parents":[2147483647,0,0,1,1,3,3,4,4,5,5,6,6,7,7,8,8],"right_children":[2,4,-1,6,8,10,12,14,16,-1,-1,-1,-1,-1,-1,-1,-1],"split_conditions":[6.2836275E5,2.1600294E0,-2.149406E-1,4.0999998E-4,1.67435E2,1.75E2,6.4600003E-4,3.95E-1,1.36666E3,1.7931664E-1,-1.2478366E-1,-1.8641132E-1,5.793189E-2,-4.898257E-2,-1.884666E-1,2.188385E-1,-3.497992E-2],"split_indices":[2,10,0,21,0,17,21,0,0,0,0,0,0,0,0,0,0],"split_type":[0,0,0,0,0,0,0,0,0,0,0,0,0,0,0,0,0],"sum_hessian":[1.7161235E2,1.6085298E2,1.0759362E1,1.1205345E2,4.8799534E1,2.2959345E1,8.90941E1,3.3030262E1,1.5769275E1,2.1526512E1,1.4328337E0,1.3234084E1,7.5860016E1,1.4510005E1,1.8520256E1,5.5503974E0,1.0218878E1],"tree_param":{"num_deleted":"0","num_feature":"43","num_nodes":"17","size_leaf_vector":"0"}},{"base_weights":[7.218659E-2,2.3679572E-1,-4.800614E-1,3.8750535E-1,-4.7020924E-1,-1.0270493E0,1.3143282E-1,9.5697904E-1,2.4041145E-1,-6.875928E-1,7.3736984E-1,-1.0731422E0,-8.612104E-2,4.8005795E-1,-9.628999E-1,1.0458719E0,-1.06199086E-1,-6.265464E-1,3.8795322E-1,-7.958132E-1,2.388487E-1,1.1628617E0,-1.9226973E-1,-3.0853465E-1,-1.1081815E0,9.183074E-1,-7.489576E-1],"categories":[],"categories_nodes":[],"categories_segments":[],"categories_sizes":[],"default_left":[true,true,true,true,true,true,true,true,true,true,true,true,false,true,false,false,false,false,false,false,false,false,false,false,false,false,false],"id":17,"left_children":[1,3,5,7,9,11,13,15,17,19,21,23,-1,25,-1,-1,-1,-1,-1,-1,-1,-1,-1,-1,-1,-1,-1],"loss_changes":[1.4790762E1,1.3506641E1,1.2646087E1,8.450275E0,6.3936152E0,7.687874E-1,7.538334E0,2.0897446E0,1.0948015E1,2.147253E0,1.7676194E0,1.6290474E-1,0E0,8.623539E0,0E0,0E0,0E0,0E0,0E0,0E0,0E0,0E0,0E0,0E0,0E0,0E0,0E0],"parents":[2147483647,0,0,1,1,2,2,3,3,4,4,5,5,6,6,7,7,8,8,9,9,10,10,11,11,13,13],"right_children":[2,4,6,8,10,12,14,16,18,20,22,24,-1,26,-1,-1,-1,-1,-1,-1,-1,-1,-1,-1,-1,-1,-1],"split_conditions":[3.55E1,1.0000285E0,1.45E1,4.0999998E-4,4.442547E-3,1.2579895E5,5.847625E5,4.5E0,6.4600003E-4,1.1685E0,1.2631E2,3.218145E4,-1.7224208E-2,1.6325E3,-1.9257998E-1,2.0917438E-1,-2.1239817E-2,-1.2530927E-1,7.7590644E-2,-1.5916264E-1,4.776974E-2,2.3257235E-1,-3.8453948E-2,-6.170693E-2,-2.216363E-1,1.8366149E-1,-1.4979152E-1],"split_indices":[17,8,6,21,21,38,2,29,21,34,1,2,0,4,0,0,0,0,0,0,0,0,0,0,0,0,0],"split_type":[0,0,0,0,0,0,0,0,0,0,0,0,0,0,0,0,0,0,0,0,0,0,0,0,0,0,0],"sum_hessian":[1.6045508E2,1.2405045E2,3.6404633E1,1.0262596E2,2.142449E1,1.885715E1,1.7547485E1,1.9936388E1,8.2689575E1,1.8521013E1,2.903477E0,1.7842585E1,1.014563E0,1.3733639E1,3.813846E0,1.8413136E1,1.5232526E0,1.155364E1,7.113593E1,1.6710062E1,1.8109517E0,1.8197237E0,1.0837532E0,1.2114921E0,1.6631094E1,1.0310037E1,3.423602E0],"tree_param":{"num_deleted":"0","num_feature":"43","num_nodes":"27","size_leaf_vector":"0"}},{"base_weights":[1.692321E-2,2.6420397E-1,-3.325228E-1,4.1047117E-1,-4.5009452E-1,-1.0823244E0,-4.586906E-2,-1.1695718E-2,6.705546E-1,-7.893515E-1,4.3903458E-1,4.7822893E-2,-1.1611389E0,2.8115508E-1,-7.398666E-1,9.379155E-1,-5.7060575E-1,1.7714699E-1,9.336705E-1,3.3584362E-1,-1.011455E0,7.234108E-1,-7.908837E-2,-1.2604527E0,-4.8447937E-1,-5.604991E-1,8.146279E-1,-1.1145093E0,-2.4209748E-1],"categories":[],"categories_nodes":[],"categories_segments":[],"categories_sizes":[],"default_left":[true,true,true,true,true,true,true,true,true,true,true,false,true,true,true,false,false,false,false,false,false,false,false,false,false,false,false,false,false],"id":18,"left_children":[1,3,5,7,9,11,13,15,17,19,21,-1,23,25,27,-1,-1,-1,-1,-1,-1,-1,-1,-1,-1,-1,-1,-1,-1],"loss_changes":[1.3793862E1,9.947441E0,1.4172823E1,8.581263E0,5.2811356E0,1.6817074E0,1.1309384E1,1.685526E1,6.109476E0,3.3881817E0,8.1759137E-1,0E0,5.389042E-1,1.5710165E1,2.703187E0,0E0,0E0,0E0,0E0,0E0,0E0,0E0,0E0,0E0,0E0,0E0,0E0,0E0,0E0],"parents":[2147483647,0,0,1,1,2,2,3,3,4,4,5,5,6,6,7,7,8,8,9,9,10,10,12,12,13,13,14,14],"right_children":[2,4,6,8,10,12,14,16,18,20,22,-1,24,26,28,-1,-1,-1,-1,-1,-1,-1,-1,-1,-1,-1,-1,-1,-1],"split_conditions":[2.5E0,1.8788481E5,4.3879997E1,6.5377E2,7.416715E-1,1.40888E0,3.9743266E5,3.14E-4,9.5788E-2,8.77E-4,2.3168411E2,9.5645785E-3,2.5E-14,3.5E0,9.5E0,1.875831E-1,-1.14121154E-1,3.54294E-2,1.8673411E-1,6.716873E-2,-2.0229101E-1,1.4468215E-1,-1.5817674E-2,-2.5209054E-1,-9.689587E-2,-1.1209982E-1,1.6292559E-1,-2.2290187E-1,-4.8419498E-2],"split_indices":[3,2,0,2,12,19,2,11,11,9,23,0,23,6,6,0,0,0,0,0,0,0,0,0,0,0,0,0,0],"split_type":[0,0,0,0,0,0,0,0,0,0,0,0,0,0,0,0,0,0,0,0,0,0,0,0,0,0,0,0,0],"sum_hessian":[1.5761366E2,9.2442154E1,6.517151E1,7.708315E1,1.5359001E1,1.7256882E1,4.7914623E1,2.974925E1,4.73339E1,1.1198362E1,4.1606393E0,1.1506444E0,1.6106237E1,3.297234E1,1.4942285E1,1.0770912E1,1.8978338E1,1.7044502E1,3.02894E1,1.7616404E0,9.436722E0,2.4304512E0,1.7301884E0,1.3292525E1,2.8137116E0,1.277178E1,2.020056E1,7.818632E0,7.1236525E0],"tree_param":{"num_deleted":"0","num_feature":"43","num_nodes":"29","size_leaf_vector":"0"}},{"base_weights":[-4.556598E-2,-2.252676E-1,3.1473714E-1,7.892398E-1,-3.0356842E-1,7.6480836E-1,-2.2570977E-1,8.574881E-1,2.74399E-1,-6.079632E-1,-1.09941766E-1,9.950122E-1,-1.0137043E-1,-4.4632155E-1,6.0278636E-1,-3.2677355E-1,-1.4069506E0,1.9947901E-1,-5.167661E-1,1.0810503E0,-6.2434345E-2,2.4975473E-1,-1.0488124E0,-8.3825655E-2,-8.477005E-1,1.0587058E0,-4.4935614E-1],"categories":[],"categories_nodes":[],"categories_segments":[],"categories_sizes":[],"default_left":[true,true,true,true,true,true,true,false,false,true,true,true,true,true,true,false,false,false,false,false,false,false,false,false,false,false,false],"id":19,"left_children":[1,3,5,7,9,11,13,-1,-1,15,17,19,21,23,25,-1,-1,-1,-1,-1,-1,-1,-1,-1,-1,-1,-1],"loss_changes":[9.806948E0,8.255822E0,1.2445799E1,2.8526306E-2,5.4972935E0,5.635811E0,4.600613E0,0E0,0E0,7.736807E0,7.5201664E0,2.0711117E0,2.5027702E0,2.7355845E0,3.070362E0,0E0,0E0,0E0,0E0,0E0,0E0,0E0,0E0,0E0,0E0,0E0,0E0],"parents":[2147483647,0,0,1,1,2,2,3,3,4,4,5,5,6,6,9,9,10,10,11,11,12,12,13,13,14,14],"right_children":[2,4,6,8,10,12,14,-1,-1,16,18,20,22,24,26,-1,-1,-1,-1,-1,-1,-1,-1,-1,-1,-1,-1],"split_conditions":[4.9077648E-1,7.6E-1,5.76861E-1,5.005E-4,2.5E0,3.0368901E3,5E-1,1.7149763E-1,5.4879803E-2,1.5E0,4.25E1,4.1738693E-2,5.5E0,6.0004935E0,8.931628E4,-6.535471E-2,-2.8139013E-1,3.9895803E-2,-1.0335322E-1,2.1621005E-1,-1.24868695E-2,4.9950946E-2,-2.0976248E-1,-1.676513E-2,-1.6954009E-1,2.1174116E-1,-8.987123E-2],"split_indices":[11,2,8,8,6,1,22,0,0,22,17,21,22,12,2,0,0,0,0,0,0,0,0,0,0,0,0],"split_type":[0,0,0,0,0,0,0,0,0,0,0,0,0,0,0,0,0,0,0,0,0,0,0,0,0,0,0],"sum_hessian":[1.4937051E2,9.9913376E1,4.9457138E1,6.5083346E0,9.3405045E1,2.6758314E1,2.2698824E1,5.1589184E0,1.3494161E0,3.548315E1,5.7921894E1,2.1022451E1,5.7358627E0,1.8289885E1,4.40894E0,2.7288445E1,8.194708E0,3.3188892E1,2.4733002E1,1.9420038E1,1.6024134E0,4.722193E0,1.0136701E0,1.0245629E1,8.044254E0,3.0716708E0,1.3372692E0],"tree_param":{"num_deleted":"0","num_feature":"43","num_nodes":"27","size_leaf_vector":"0"}},{"base_weights":[-1.164144E-2,2.5217873E-1,-2.9586154E-1,-1.9029814E-1,5.271133E-1,-7.392269E-1,-1.2242859E-1,8.005067E-1,-6.3677245E-1,7.1387637E-1,-4.2704463E-1,-8.654842E-1,6.8259835E-1,6.761377E-1,-3.2422978E-1,9.5016754E-1,-2.0032313E-1,-7.929361E-1,8.5533756E-1,8.1047463E-1,-7.746306E-1,7.7634716E-1,-8.1764686E-1,-2.9144087E-1,-1.1464294E0,9.225383E-1,-7.110055E-1,-8.2479393E-1,-5.6966472E-2],"categories":[],"categories_nodes":[],"categories_segments":[],"categories_sizes":[],"default_left":[true,true,true,true,true,true,true,true,true,true,true,true,false,true,true,false,false,false,false,false,false,false,false,false,false,false,false,false,false],"id":20,"left_children":[1,3,5,7,9,11,13,15,17,19,21,23,-1,25,27,-1,-1,-1,-1,-1,-1,-1,-1,-1,-1,-1,-1,-1,-1],"loss_changes":[1.0429171E1,8.878247E0,5.0564904E0,1.3067356E1,8.282731E0,3.9338589E0,8.1661415E0,1.5775294E0,5.367854E0,6.0650864E0,4.3736E0,2.495429E0,0E0,4.1668053E0,5.309845E0,0E0,0E0,0E0,0E0,0E0,0E0,0E0,0E0,0E0,0E0,0E0,0E0,0E0,0E0],"parents":[2147483647,0,0,1,1,2,2,3,3,4,4,5,5,6,6,7,7,8,8,9,9,10,10,11,11,13,13,14,14],"right_children":[2,4,6,8,10,12,14,16,18,20,22,24,-1,26,28,-1,-1,-1,-1,-1,-1,-1,-1,-1,-1,-1,-1,-1,-1],"split_conditions":[5.266054E4,4.85785E2,2.5E0,4.3932498E-2,3.068055E3,8.887056E4,1.805E-1,5E-1,4.4798963E-3,1.375E2,4.605E-4,3.55E-1,1.3651967E-1,3.4295E3,3.92735E-1,1.9003351E-1,-4.006463E-2,-1.5858722E-1,1.7106752E-1,1.6209494E-1,-1.5492612E-1,1.5526943E-1,-1.6352938E-1,-5.8288176E-2,-2.2928588E-1,1.8450765E-1,-1.4220111E-1,-1.6495879E-1,-1.1393295E-2],"split_indices":[2,2,6,13,1,0,10,5,21,4,11,0,0,17,13,0,0,0,0,0,0,0,0,0,0,0,0,0,0],"split_type":[0,0,0,0,0,0,0,0,0,0,0,0,0,0,0,0,0,0,0,0,0,0,0,0,0,0,0,0,0],"sum_hessian":[1.370921E2,7.115604E1,6.5936066E1,2.73872E1,4.3768837E1,1.7622768E1,4.83133E1,8.261199E0,1.9126001E1,3.68147E1,6.9541373E0,1.654488E1,1.0778892E0,9.271937E0,3.9041363E1,7.2305818E0,1.0306172E0,1.7738117E1,1.3878835E0,3.499892E1,1.8157804E0,1.4620862E0,5.492051E0,6.106036E0,1.0438843E1,8.157791E0,1.1141456E0,1.28632965E1,2.6178066E1],"tree_param":{"num_deleted":"0","num_feature":"43","num_nodes":"29","size_leaf_vector":"0"}},{"base_weights":[2.9383913E-2,2.9782337E-1,-3.09746E-1,4.16267E-1,-2.8557512E-1,-5.2114373E-1,5.290256E-1,4.763579E-1,-6.1467445E-1,-6.753351E-1,3.5855734E-1,-1.1002277E0,-3.0354857E-1,8.5645676E-1,-4.1867313E-1,3.644155E-1,1.0882449E0,-3.3694062E-2,-9.8062235E-1,7.2029227E-1,-5.4525054E-1,-7.332209E-2,-1.1867818E0,3.4637805E-2,-1.037115E0,1.0479875E0,-2.7756596E-1,-7.347248E-1,2.3464565E-1],"categories":[],"categories_nodes":[],"categories_segments":[],"categories_sizes":[],"default_left":[true,true,true,true,true,true,true,true,false,true,true,true,true,true,true,false,false,false,false,false,false,false,false,false,false,false,false,false,false],"id":21,"left_children":[1,3,5,7,9,11,13,15,-1,17,19,21,23,25,27,-1,-1,-1,-1,-1,-1,-1,-1,-1,-1,-1,-1,-1,-1],"loss_changes":[1.2059266E1,5.2242513E0,1.06609745E1,4.1227055E0,3.521418E0,5.624033E0,4.1710825E0,3.6433697E0,0E0,1.6289561E0,2.2161748E0,1.026989E0,8.90489E0,2.3455367E0,9.625187E-1,0E0,0E0,0E0,0E0,0E0,0E0,0E0,0E0,0E0,0E0,0E0,0E0,0E0,0E0],"parents":[2147483647,0,0,1,1,2,2,3,3,4,4,5,5,6,6,7,7,9,9,10,10,11,11,12,12,13,13,14,14],"right_children":[2,4,6,8,10,12,14,16,-1,18,20,22,24,26,28,-1,-1,-1,-1,-1,-1,-1,-1,-1,-1,-1,-1,-1,-1],"split_conditions":[2.5E0,1.9866431E5,1.85E1,2.2312458E1,4.099449E0,2.9355E1,5.1569428E5,6.989748E0,-1.2293489E-1,1.3469786E-3,2.75285E-2,9.4188225E-1,8.0700005E-7,2.9229937E3,6.45682E3,7.28831E-2,2.1764898E-1,-6.7388127E-3,-1.9612448E-1,1.4405845E-1,-1.0905011E-1,-1.4664418E-2,-2.3735635E-1,6.927561E-3,-2.07423E-1,2.095975E-1,-5.5513192E-2,-1.4694497E-1,4.6929132E-2],"split_indices":[3,2,6,10,9,0,2,18,0,21,34,18,24,18,1,0,0,0,0,0,0,0,0,0,0,0,0,0,0],"split_type":[0,0,0,0,0,0,0,0,0,0,0,0,0,0,0,0,0,0,0,0,0,0,0,0,0,0,0,0,0],"sum_hessian":[1.304539E2,7.288406E1,5.7569836E1,6.0822205E1,1.2061858E1,4.6283554E1,1.128628E1,5.7980602E1,2.8416014E0,7.484562E0,4.5772963E0,1.1533431E1,3.4750122E1,8.459715E0,2.826565E0,5.0362526E1,7.618076E0,2.7709837E0,4.713578E0,3.4139597E0,1.1633366E0,1.0401282E0,1.0493303E1,2.4437027E1,1.0313097E1,7.3022666E0,1.1574483E0,1.8210189E0,1.0055462E0],"tree_param":{"num_deleted":"0","num_feature":"43","num_nodes":"29","size_leaf_vector":"0"}},{"base_weights":[-3.705003E-2,2.309928E-2,-8.921803E-1,-1.2230191E-1,4.899629E-1,-8.561729E-2,-9.8876566E-1,8.4280804E-2,-5.541893E-1,7.2780704E-1,-7.306798E-1,2.031241E-1,-9.400132E-1,-9.9245536E-1,-5.1439054E-2,8.2624364E-1,-7.624497E-1,-9.648806E-1,1.797366E-2],"categories":[],"categories_nodes":[],"categories_segments":[],"categories_sizes":[],"default_left":[true,true,true,true,true,false,false,true,true,true,true,false,false,false,false,false,false,false,false],"id":22,"left_children":[1,3,5,7,9,-1,-1,11,13,15,17,-1,-1,-1,-1,-1,-1,-1,-1],"loss_changes":[6.6411176E0,8.289377E0,5.762644E-1,8.365719E0,8.948178E0,0E0,0E0,7.9743958E0,6.6254177E0,4.2626266E0,9.337404E-1,0E0,0E0,0E0,0E0,0E0,0E0,0E0,0E0],"parents":[2147483647,0,0,1,1,2,2,3,3,4,4,7,7,8,8,9,9,10,10],"right_children":[2,4,6,8,10,-1,-1,12,14,16,18,-1,-1,-1,-1,-1,-1,-1,-1],"split_conditions":[6.269874E5,6.5E0,5.3E-5,6.0074415E0,7.055E2,-1.7123459E-2,-1.9775313E-1,3.5E0,3.8992105E0,2.4100246E1,2.731747E5,4.0624823E-2,-1.8800263E-1,-1.9849108E-1,-1.0287811E-2,1.6524874E-1,-1.5248995E-1,-1.9297612E-1,3.594732E-3],"split_indices":[2,6,8,19,17,0,0,22,13,10,2,0,0,0,0,0,0,0,0],"split_type":[0,0,0,0,0,0,0,0,0,0,0,0,0,0,0,0,0,0,0],"sum_hessian":[1.2771478E2,1.2023081E2,7.48397E0,9.224106E1,2.7989754E1,1.0020993E0,6.4818707E0,6.294008E1,2.9300982E1,2.3763206E1,4.2265472E0,5.7115025E1,5.8250546E0,1.5134033E1,1.4166948E1,2.2708784E1,1.0544235E0,2.9994192E0,1.2271279E0],"tree_param":{"num_deleted":"0","num_feature":"43","num_nodes":"19","size_leaf_vector":"0"}},{"base_weights":[-7.314311E-2,-2.4115974E-1,1.9026858E-1,-1.2619746E-2,-6.949333E-1,5.925218E-1,-2.3033236E-1,-2.3159179E-1,5.044976E-1,-1.2337241E0,-2.0093924E-1,7.346205E-1,-3.4762147E-1,3.8871747E-1,-7.412802E-1,-4.0223464E-1,8.479342E-1,8.6140215E-1,-7.671595E-1,4.286412E-1,-7.702959E-1,8.818591E-1,-3.69858E-1,-7.658807E-1,2.8378832E-1,-3.0344203E-1,5.95398E-1,2.7874334E-2,-1.0867223E0],"categories":[],"categories_nodes":[],"categories_segments":[],"categories_sizes":[],"default_left":[true,true,true,true,true,true,true,true,true,false,true,true,true,true,true,false,false,false,false,false,false,false,false,false,false,false,false,false,false],"id":23,"left_children":[1,3,5,7,9,11,13,15,17,-1,19,21,23,25,27,-1,-1,-1,-1,-1,-1,-1,-1,-1,-1,-1,-1,-1,-1],"loss_changes":[5.5947323E0,7.975554E0,8.491978E0,6.030052E0,6.6108503E0,3.6651278E0,8.152186E0,7.22544E0,7.8542304E0,0E0,5.577294E0,3.9840841E0,1.2816514E0,1.8827437E0,3.740622E0,0E0,0E0,0E0,0E0,0E0,0E0,0E0,0E0,0E0,0E0,0E0,0E0,0E0,0E0],"parents":[2147483647,0,0,1,1,2,2,3,3,4,4,5,5,6,6,7,7,8,8,10,10,11,11,12,12,13,13,14,14],"right_children":[2,4,6,8,10,12,14,16,18,-1,20,22,24,26,28,-1,-1,-1,-1,-1,-1,-1,-1,-1,-1,-1,-1,-1,-1],"split_conditions":[1.3275125E0,2.5E0,4.5E0,2.5E0,8.1244995E1,1.17420166E2,7.6019997E-3,6.7244995E1,2.6845001E-8,-2.4674483E-1,1.2208067E5,6.8E-7,5.5E0,1.5178201E3,2.9226E2,-8.044693E-2,1.6958684E-1,1.7228043E-1,-1.534319E-1,8.572824E-2,-1.5405919E-1,1.7637183E-1,-7.39716E-2,-1.5317614E-1,5.6757666E-2,-6.0688406E-2,1.19079605E-1,5.5748667E-3,-2.1734445E-1],"split_indices":[35,3,22,6,0,19,8,0,23,0,2,24,6,23,1,0,0,0,0,0,0,0,0,0,0,0,0,0,0],"split_type":[0,0,0,0,0,0,0,0,0,0,0,0,0,0,0,0,0,0,0,0,0,0,0,0,0,0,0,0,0],"sum_hessian":[1.243763E2,7.599043E1,4.8385868E1,5.1221085E1,2.4769344E1,2.4523449E1,2.3862421E1,3.637172E1,1.4849366E1,1.1131242E1,1.36381035E1,2.1493416E1,3.0300326E0,1.0897972E1,1.2964449E1,3.194889E1,4.422829E0,1.1846992E1,3.0023744E0,6.593891E0,7.0442123E0,1.9143011E1,2.3504045E0,1.6945543E0,1.3354782E0,2.3982432E0,8.499729E0,4.3029323E0,8.661516E0],"tree_param":{"num_deleted":"0","num_feature":"43","num_nodes":"29","size_leaf_vector":"0"}},{"base_weights":[-1.4112523E-2,3.698683E-2,-1.000525E0,9.7021475E-2,-7.692038E-1,-4.6406023E-2,6.990335E-1,-9.4721526E-1,-4.115716E-2,7.310865E-1,-1.778427E-1,8.6903036E-1,1.1043228E-1],"categories":[],"categories_nodes":[],"categories_segments":[],"categories_sizes":[],"default_left":[true,true,false,true,true,true,true,false,false,false,false,false,false],"id":24,"left_children":[1,3,-1,5,7,9,11,-1,-1,-1,-1,-1,-1],"loss_changes":[5.83935E0,5.4183598E0,0E0,8.981682E0,9.672384E-1,8.779552E0,1.9056644E0,0E0,0E0,0E0,0E0,0E0,0E0],"parents":[2147483647,0,0,1,1,3,3,4,4,5,5,6,6],"right_children":[2,4,-1,6,8,10,12,-1,-1,-1,-1,-1,-1],"split_conditions":[7.11E2,5.447834E5,-2.00105E-1,7.5E0,1.02584995E-2,2.5201E-4,3.94308E3,-1.8944305E-1,-8.231432E-3,1.462173E-1,-3.5568543E-2,1.7380607E-1,2.2086456E-2],"split_indices":[17,2,0,6,11,21,1,0,0,0,0,0,0],"split_type":[0,0,0,0,0,0,0,0,0,0,0,0,0],"sum_hessian":[1.1411435E2,1.0940911E2,4.7052417E0,1.0264509E2,6.7640233E0,8.364083E1,1.9004255E1,5.193216E0,1.5708073E0,1.143524E1,7.220559E1,1.4375856E1,4.6283975E0],"tree_param":{"num_deleted":"0","num_feature":"43","num_nodes":"13","size_leaf_vector":"0"}},{"base_weights":[3.1600155E-2,-5.5670723E-2,5.3652936E-1,-1.4893587E-1,5.100345E-1,8.896674E-1,-2.9656774E-1,-6.320868E-2,-1.0025538E0,6.409643E-1,-5.262397E-1,1.0224047E0,-2.1162632E-1,-7.9413444E-1,1.7503121E-1,1.6891153E-1,-3.142642E-1,-1.1372988E0,-4.0260208E-1,8.3716196E-1,-9.949591E-2,1.1497265E0,1.8937476E-1,9.8615867E-1,-4.9918804E-1],"categories":[],"categories_nodes":[],"categories_segments":[],"categories_sizes":[],"default_left":[true,true,true,true,true,true,true,true,true,true,false,true,false,false,true,false,false,false,false,false,false,false,false,false,false],"id":25,"left_children":[1,3,5,7,9,11,13,15,17,19,-1,21,-1,-1,23,-1,-1,-1,-1,-1,-1,-1,-1,-1,-1],"loss_changes":[4.865159E0,5.059981E0,5.048838E0,5.9276648E0,2.181964E0,1.9227037E0,1.4511437E0,4.450795E0,1.4068842E-1,1.90238E0,0E0,9.053259E-1,0E0,0E0,2.5103965E0,0E0,0E0,0E0,0E0,0E0,0E0,0E0,0E0,0E0,0E0],"parents":[2147483647,0,0,1,1,2,2,3,3,4,4,5,5,6,6,7,7,8,8,9,9,11,11,14,14],"right_children":[2,4,6,8,10,12,14,16,18,20,-1,22,-1,-1,24,-1,-1,-1,-1,-1,-1,-1,-1,-1,-1],"split_conditions":[1.9977396E0,1.0294149E0,3.3654404E0,1E-6,9E-1,9.236785E3,1.093469E1,1.90255E-2,4.496445E-1,1.8614814E-2,-1.0524794E-1,7.911155E-1,-4.2325266E-2,-1.5882689E-1,1.8975447E1,3.3782307E-2,-6.2852845E-2,-2.2745977E-1,-8.0520414E-2,1.674324E-1,-1.9899182E-2,2.299453E-1,3.7874952E-2,1.9723174E-1,-9.983761E-2],"split_indices":[11,34,8,34,8,1,18,11,34,21,0,34,0,0,10,0,0,0,0,0,0,0,0,0,0],"split_type":[0,0,0,0,0,0,0,0,0,0,0,0,0,0,0,0,0,0,0,0,0,0,0,0,0],"sum_hessian":[1.08729324E2,9.346481E1,1.5264511E1,8.086904E1,1.2595771E1,1.0672631E1,4.5918803E0,7.446474E1,6.4043E0,1.1521535E1,1.0742357E0,9.588569E0,1.0840625E0,1.9016259E0,2.6902542E0,3.886149E1,3.560325E1,4.4983516E0,1.9059485E0,9.004928E0,2.516607E0,7.9875603E0,1.6010083E0,1.0111321E0,1.6791221E0],"tree_param":{"num_deleted":"0","num_feature":"43","num_nodes":"25","size_leaf_vector":"0"}},{"base_weights":[-2.2586444E-2,-1.8636605E-1,2.196949E-1,-1.7705807E-2,-7.030236E-1,3.3347598E-1,-7.617894E-1,-2.1065407E-1,3.947583E-1,-1.1670313E0,-2.8793213E-1,4.2210716E-1,-7.8581876E-1,-9.079059E-1,-9.6490696E-2,5.670927E-1,-4.7721136E-1,-9.5494115E-1,8.927391E-1,-5.905856E-1,4.3521065E-1,8.2431984E-1,1.9362706E-1],"categories":[],"categories_nodes":[],"categories_segments":[],"categories_sizes":[],"default_left":[true,true,true,true,true,true,true,true,true,false,true,true,false,false,false,false,false,false,false,false,false,false,false],"id":26,"left_children":[1,3,5,7,9,11,13,15,17,-1,19,21,-1,-1,-1,-1,-1,-1,-1,-1,-1,-1,-1],"loss_changes":[4.568119E0,5.966571E0,5.4441843E0,4.2815256E0,2.911399E0,4.5323277E0,4.1133928E-1,7.8568463E0,1.2386751E1,0E0,2.4952972E0,3.505889E0,0E0,0E0,0E0,0E0,0E0,0E0,0E0,0E0,0E0,0E0,0E0],"parents":[2147483647,0,0,1,1,2,2,3,3,4,4,5,5,6,6,7,7,8,8,10,10,11,11],"right_children":[2,4,6,8,10,12,14,16,18,-1,20,22,-1,-1,-1,-1,-1,-1,-1,-1,-1,-1,-1],"split_conditions":[3.5E0,6.460578E0,1.28778E3,4.992985E-1,1.1287E1,7.933245E5,4.6E1,5.953E-3,9.7475E1,-2.3340626E-1,1.1210436E1,2.723517E-3,-1.5716375E-1,-1.8158118E-1,-1.929814E-2,1.1341854E-1,-9.544227E-2,-1.9098823E-1,1.7854783E-1,-1.1811712E-1,8.704213E-2,1.6486397E-1,3.8725413E-2],"split_indices":[6,19,19,8,9,2,29,12,2,0,11,21,0,0,0,0,0,0,0,0,0,0,0],"split_type":[0,0,0,0,0,0,0,0,0,0,0,0,0,0,0,0,0,0,0,0,0,0,0],"sum_hessian":[1.1308998E2,6.761426E1,4.547573E1,5.175377E1,1.5860486E1,4.134315E1,4.1325774E0,3.55929E1,1.6160868E1,6.6336236E0,9.226863E0,3.8886787E1,2.4563632E0,3.0894063E0,1.0431712E0,8.797258E0,2.6795643E1,4.108309E0,1.2052559E1,6.63377E0,2.5930924E0,1.3142718E1,2.574407E1],"tree_param":{"num_deleted":"0","num_feature":"43","num_nodes":"23","size_leaf_vector":"0"}},{"base_weights":[-7.597854E-2,8.04516E-2,-3.117513E-1,-5.777309E-2,8.392316E-1,-6.7258364E-1,4.2393215E-2,2.3485602E-1,-4.023785E-1,1.0393399E0,1.320216E-1,-1.076029E-1,-9.339982E-1,9.446773E-1,-2.2908776E-1,5.3770876E-1,-2.6634783E-1,-7.82741E-1,3.2835358E-1,1.1608104E0,8.677081E-2,5.505442E-1,-4.3708292E-1,-5.99716E-1,8.484789E-1,-1.0667586E0,-2.360244E-1,1.1331469E0,2.558774E-1,-9.395789E-1,2.8349297E-2],"categories":[],"categories_nodes":[],"categories_segments":[],"categories_sizes":[],"default_left":[true,true,true,true,true,true,true,true,true,true,true,true,true,true,true,false,false,false,false,false,false,false,false,false,false,false,false,false,false,false,false],"id":27,"left_children":[1,3,5,7,9,11,13,15,17,19,21,23,25,27,29,-1,-1,-1,-1,-1,-1,-1,-1,-1,-1,-1,-1,-1,-1,-1,-1],"loss_changes":[4.185795E0,7.244613E0,5.8044825E0,6.041573E0,1.3681407E0,3.2149258E0,6.0345683E0,5.0800343E0,7.886727E0,8.4179974E-1,1.0722557E0,4.381621E0,1.1582518E0,4.4856358E-1,3.513444E0,0E0,0E0,0E0,0E0,0E0,0E0,0E0,0E0,0E0,0E0,0E0,0E0,0E0,0E0,0E0,0E0],"parents":[2147483647,0,0,1,1,2,2,3,3,4,4,5,5,6,6,7,7,8,8,9,9,10,10,11,11,12,12,13,13,14,14],"right_children":[2,4,6,8,10,12,14,16,18,20,22,24,26,28,30,-1,-1,-1,-1,-1,-1,-1,-1,-1,-1,-1,-1,-1,-1,-1,-1],"split_conditions":[1.3443865E0,1.127536E0,5E-1,4.1171998E-2,3.5E0,3.5E0,2.0570064E4,1.5E0,4.367145E-1,7.7809846E-1,6.8096E-2,2.5E0,3.8267164E0,7.5E0,-3.0498133E0,1.07541755E-1,-5.3269565E-2,-1.565482E-1,6.567072E-2,2.3216207E-1,1.7354162E-2,1.10108845E-1,-8.741658E-2,-1.199432E-1,1.6969578E-1,-2.1335173E-1,-4.720488E-2,2.2662938E-1,5.1175483E-2,-1.8791579E-1,5.6698597E-3],"split_indices":[10,13,22,11,7,17,2,22,8,8,11,17,11,4,21,0,0,0,0,0,0,0,0,0,0,0,0,0,0,0,0],"split_type":[0,0,0,0,0,0,0,0,0,0,0,0,0,0,0,0,0,0,0,0,0,0,0,0,0,0,0,0,0,0,0],"sum_hessian":[1.11811615E2,6.761157E1,4.4200047E1,5.7974407E1,9.637164E0,2.1447916E1,2.2752129E1,3.1523785E1,2.6450623E1,7.145639E0,2.4915254E0,7.231182E0,1.4216735E1,4.6888204E0,1.8063307E1,1.9604761E1,1.19190235E1,1.7348936E1,9.1016865E0,6.143604E0,1.0020351E0,1.454495E0,1.0370303E0,5.02002E0,2.211162E0,1.1500818E1,2.715916E0,3.1749785E0,1.5138417E0,4.099501E0,1.3963806E1],"tree_param":{"num_deleted":"0","num_feature":"43","num_nodes":"31","size_leaf_vector":"0"}},{"base_weights":[-7.947482E-2,9.5657915E-2,-3.7112156E-1,2.133819E-1,-3.8900474E-1,2.6462153E-1,-5.172698E-1,1.2847254E-1,9.627882E-1,-1.1070067E0,-9.791441E-2,5.599447E-1,-6.670353E-1,-6.894589E-1,6.089019E-2,2.1080601E-1,-5.493007E-1,2.6927888E-1,1.0618842E0,-3.3768415E-1,-1.3091505E0,9.1279334E-1,-4.6192318E-1,9.2693E-1,-3.2535237E-1,-8.330657E-1,3.351569E-2,4.588253E-1,-3.8723558E-1],"categories":[],"categories_nodes":[],"categories_segments":[],"categories_sizes":[],"default_left":[true,true,true,true,true,true,true,true,true,true,true,true,false,true,true,false,false,false,false,false,false,false,false,false,false,false,false,false,false],"id":28,"left_children":[1,3,5,7,9,11,13,15,17,19,21,23,-1,25,27,-1,-1,-1,-1,-1,-1,-1,-1,-1,-1,-1,-1,-1,-1],"loss_changes":[5.3627396E0,3.8465264E0,3.7917929E0,3.2943673E0,2.6598606E0,2.578556E0,3.2598028E0,2.8726845E0,7.917404E-2,1.3701105E-1,4.2924905E0,2.4552712E0,0E0,2.6221218E0,1.6642318E0,0E0,0E0,0E0,0E0,0E0,0E0,0E0,0E0,0E0,0E0,0E0,0E0,0E0,0E0],"parents":[2147483647,0,0,1,1,2,2,3,3,4,4,5,5,6,6,7,7,8,8,9,9,10,10,11,11,13,13,14,14],"right_children":[2,4,6,8,10,12,14,16,18,20,22,24,-1,26,28,-1,-1,-1,-1,-1,-1,-1,-1,-1,-1,-1,-1,-1,-1],"split_conditions":[3.5E0,3.475E0,9.82E-4,3.4467926E0,9.497351E0,9.810015E3,2.495E-1,4.5E0,2.995E0,7.090124E0,1.966661E1,1.5641089E2,-1.3340706E-1,1.85E1,6.087985E-1,4.2161204E-2,-1.0986014E-1,5.3855777E-2,2.1237683E-1,-6.753683E-2,-2.618301E-1,1.8255867E-1,-9.238464E-2,1.85386E-1,-6.507047E-2,-1.6661315E-1,6.7031384E-3,9.176506E-2,-7.744712E-2],"split_indices":[3,10,8,13,9,0,8,22,9,18,19,18,0,6,8,0,0,0,0,0,0,0,0,0,0,0,0,0,0],"split_type":[0,0,0,0,0,0,0,0,0,0,0,0,0,0,0,0,0,0,0,0,0,0,0,0,0,0,0,0,0],"sum_hessian":[1.0329842E2,6.496137E1,3.8337048E1,5.2716362E1,1.2245011E1,7.014299E0,3.1322748E1,4.8403564E1,4.3127975E0,2.7237234E0,9.521288E0,5.6289687E0,1.3853306E0,2.3986517E1,7.336231E0,4.3774918E1,4.6286488E0,1.003975E0,3.3088226E0,1.1224393E0,1.601284E0,2.1219268E0,7.399361E0,3.9461358E0,1.6828326E0,1.9884518E1,4.1020007E0,3.8730721E0,3.4631593E0],"tree_param":{"num_deleted":"0","num_feature":"43","num_nodes":"29","size_leaf_vector":"0"}},{"base_weights":[4.5649044E-2,9.046111E-2,-8.2858896E-1,-2.762054E-1,2.1413383E-1,-9.4408363E-1,-2.601027E-1,7.3066E-1,-5.881421E-1,7.849131E-1,-5.590219E-2,9.5131004E-1,-1.6213892E-1,-7.763471E-1,4.65483E-1,1.183279E0,5.125817E-1,-3.4458914E-1,3.1865004E-1],"categories":[],"categories_nodes":[],"categories_segments":[],"categories_sizes":[],"default_left":[true,true,true,true,true,false,false,true,true,true,true,false,false,false,false,false,false,false,false],"id":29,"left_children":[1,3,5,7,9,-1,-1,11,13,15,17,-1,-1,-1,-1,-1,-1,-1,-1],"loss_changes":[4.032491E0,4.4575124E0,8.430219E-2,8.250434E0,1.1309904E1,0E0,0E0,1.4023502E0,4.241028E0,1.9474096E0,5.5759683E0,0E0,0E0,0E0,0E0,0E0,0E0,0E0,0E0],"parents":[2147483647,0,0,1,1,2,2,3,3,4,4,7,7,8,8,9,9,10,10],"right_children":[2,4,6,8,10,-1,-1,12,14,16,18,-1,-1,-1,-1,-1,-1,-1,-1],"split_conditions":[6.77E2,1.34297E3,1.336062E2,2.64E-4,2.849908E4,-1.8881673E-1,-5.202054E-2,1.005E0,3.1220001E1,5.93337E-1,5.5E0,1.90262E-1,-3.2427784E-2,-1.5526943E-1,9.309661E-2,2.3665582E-1,1.02516346E-1,-6.891783E-2,6.373001E-2],"split_indices":[17,2,21,11,2,0,0,9,0,9,6,0,0,0,0,0,0,0,0],"split_type":[0,0,0,0,0,0,0,0,0,0,0,0,0,0,0,0,0,0,0],"sum_hessian":[1.0001833E2,9.599434E1,4.0239935E0,2.3900488E1,7.209385E1,2.7953818E0,1.2286118E0,5.3356876E0,1.85648E1,2.2541286E1,4.9552563E1,4.2257752E0,1.1099122E0,1.5974503E1,2.5902984E0,7.794502E0,1.4746785E1,2.8029083E1,2.152348E1],"tree_param":{"num_deleted":"0","num_feature":"43","num_nodes":"19","size_leaf_vector":"0"}},{"base_weights":[7.0162326E-2,-6.158695E-2,4.0101454E-1,-3.495324E-1,1.1633475E-1,-5.1689935E-1,5.644133E-1,7.2483283E-1,-4.7882265E-1,4.1937906E-1,-2.6529533E-1,-1.02720514E-1,-6.030728E-1,1.5733132E0,3.1142125E-1,-8.378137E-1,-2.5129932E-1,8.732304E-1,-4.2430043E-2,-7.4442315E-1,1.6895123E-1,-7.2036344E-1,-1.435826E-1,2.0735679E0,-1.0080806E-1,-3.0322906E-2,8.84155E-1],"categories":[],"categories_nodes":[],"categories_segments":[],"categories_sizes":[],"default_left":[true,true,true,true,true,true,true,false,true,true,true,false,true,true,true,false,false,false,false,false,false,false,false,false,false,false,false],"id":30,"left_children":[1,3,5,7,9,11,13,-1,15,17,19,-1,21,23,25,-1,-1,-1,-1,-1,-1,-1,-1,-1,-1,-1,-1],"loss_changes":[4.3201284E0,3.6957674E0,4.521077E0,4.1665735E0,5.297882E0,1.0876453E-1,5.7418456E0,0E0,1.8433418E0,5.35753E0,4.383172E0,0E0,9.888506E-2,4.1017647E0,4.091507E0,0E0,0E0,0E0,0E0,0E0,0E0,0E0,0E0,0E0,0E0,0E0,0E0],"parents":[2147483647,0,0,1,1,2,2,3,3,4,4,5,5,6,6,8,8,9,9,10,10,12,12,13,13,14,14],"right_children":[2,4,6,8,10,12,14,-1,16,18,20,-1,22,24,26,-1,-1,-1,-1,-1,-1,-1,-1,-1,-1,-1,-1],"split_conditions":[4.6256298E-1,2.5E0,3.9805E1,5.4E-1,3.25E1,1.595E0,2.53575E2,1.4496657E-1,3.51175E3,3.7525576E-3,1.35E1,-2.0544102E-2,1.892E1,1.1437286E1,1.8228E2,-1.6756274E-1,-5.0259866E-2,1.7464608E-1,-8.486009E-3,-1.4888464E-1,3.3790246E-2,-1.440727E-1,-2.871652E-2,4.147136E-1,-2.0161612E-2,-6.064581E-3,1.7683099E-1],"split_indices":[8,6,2,2,17,2,2,0,2,21,6,0,2,9,0,0,0,0,0,0,0,0,0,0,0,0,0],"split_type":[0,0,0,0,0,0,0,0,0,0,0,0,0,0,0,0,0,0,0,0,0,0,0,0,0,0,0],"sum_hessian":[9.754271E1,7.0344536E1,2.7198174E1,2.6497272E1,4.384726E1,3.7830386E0,2.3415136E1,2.3514175E0,2.4145855E1,2.4384853E1,1.9462406E1,1.029058E0,2.7539806E0,3.6481113E0,1.9767025E1,8.326232E0,1.5819622E1,1.18490715E1,1.2535782E1,8.913439E0,1.0548968E1,1.7416563E0,1.0123243E0,2.6250908E0,1.0230205E0,1.2973144E1,6.7938814E0],"tree_param":{"num_deleted":"0","num_feature":"43","num_nodes":"27","size_leaf_vector":"0"}},{"base_weights":[-3.6727436E-2,1.5508647E-1,-2.8676677E-1,-4.5398554E-1,2.7603906E-1,-8.935038E-1,-4.8499078E-2,4.4573584E-1,-9.050548E-1,4.9980208E-1,-9.833327E-2,2.2105218E-1,-1.0717796E0,-3.0854467E-1,3.731388E-1,6.243028E-1,6.4950556E-2,2.842948E-1,9.975846E-1,-9.979813E-1,8.9133784E-2,-1.2527907E0,-2.8879702E-1,-1.3246462E-1,-1.28096E0,-4.8325792E-2,1.1686789E0],"categories":[],"categories_nodes":[],"categories_segments":[],"categories_sizes":[],"default_left":[true,true,true,true,true,true,true,true,false,true,true,false,true,true,true,false,false,false,false,false,false,false,false,false,false,false,false],"id":31,"left_children":[1,3,5,7,9,11,13,15,-1,17,19,-1,21,23,25,-1,-1,-1,-1,-1,-1,-1,-1,-1,-1,-1,-1],"loss_changes":[4.839362E0,4.340904E0,6.2815995E0,4.4045887E0,4.100666E0,2.6767826E0,3.6755252E0,2.2886753E-1,0E0,2.9813967E0,3.281373E0,0E0,1.1627655E0,3.3630075E0,4.361593E0,0E0,0E0,0E0,0E0,0E0,0E0,0E0,0E0,0E0,0E0,0E0,0E0],"parents":[2147483647,0,0,1,1,2,2,3,3,4,4,5,5,6,6,7,7,9,9,10,10,12,12,13,13,14,14],"right_children":[2,4,6,8,10,12,14,16,-1,18,20,-1,22,24,26,-1,-1,-1,-1,-1,-1,-1,-1,-1,-1,-1,-1],"split_conditions":[2.5E0,6.532E1,1.6753E2,7.2345E-3,5.2698305E4,1.3489687E0,7.2969506E-3,8.415E-4,-1.8101096E-1,1.2872029E4,7.0906516E4,4.4210438E-2,1.05E1,5.420534E-3,8.4635803E2,1.2486056E-1,1.29901115E-2,5.6858964E-2,1.9951692E-1,-1.9959627E-1,1.7826756E-2,-2.5055814E-1,-5.7759404E-2,-2.6492923E-2,-2.56192E-1,-9.665159E-3,2.3373578E-1],"split_indices":[3,2,0,12,2,19,21,8,0,2,2,0,7,21,36,0,0,0,0,0,0,0,0,0,0,0,0],"split_type":[0,0,0,0,0,0,0,0,0,0,0,0,0,0,0,0,0,0,0,0,0,0,0,0,0,0,0],"sum_hessian":[9.89747E1,5.6223465E1,4.2751232E1,8.859073E0,4.736439E1,1.1279228E1,3.1472004E1,2.962257E0,5.896816E0,2.9435627E1,1.7928766E1,1.5222688E0,9.75696E0,1.9632107E1,1.1839899E1,1.5812331E0,1.3810238E0,2.1638636E1,7.7969913E0,2.3461535E0,1.5582613E1,7.4375196E0,2.3194404E0,1.7584259E1,2.0478466E0,8.353566E0,3.486333E0],"tree_param":{"num_deleted":"0","num_feature":"43","num_nodes":"27","size_leaf_vector":"0"}},{"base_weights":[-2.664467E-2,-5.404044E-2,1.3225923E0,6.960792E-3,-8.662618E-1,-2.038744E-1,2.8063008E-1,-9.842468E-1,-1.0445159E-1,-2.9711194E-2,-7.747684E-1,4.8658168E-1,-2.3760478E-1],"categories":[],"categories_nodes":[],"categories_segments":[],"categories_sizes":[],"default_left":[true,true,false,true,true,true,true,false,false,false,false,false,false],"id":32,"left_children":[1,3,-1,5,7,9,11,-1,-1,-1,-1,-1,-1],"loss_changes":[3.7291276E0,4.8588595E0,0E0,5.3710012E0,5.1290226E-1,5.20677E0,4.4378495E0,0E0,0E0,0E0,0E0,0E0,0E0],"parents":[2147483647,0,0,1,1,3,3,4,4,5,5,6,6],"right_children":[2,4,-1,6,8,10,12,-1,-1,-1,-1,-1,-1],"split_conditions":[1.1789189E5,5.27512E5,2.6451847E-1,3.1244999E1,6.0932617E0,3.75E-1,5E-7,-1.9684936E-1,-2.0890318E-2,-5.942239E-3,-1.5495369E-1,9.731634E-2,-4.7520958E-2],"split_indices":[1,2,0,0,21,0,34,0,0,0,0,0,0],"split_type":[0,0,0,0,0,0,0,0,0,0,0,0,0],"sum_hessian":[9.795344E1,9.6944954E1,1.008485E0,9.109479E1,5.8501706E0,5.1598366E1,3.9496418E1,4.812805E0,1.0373652E0,4.034295E1,1.125542E1,2.8307728E1,1.118869E1],"tree_param":{"num_deleted":"0","num_feature":"43","num_nodes":"13","size_leaf_vector":"0"}},{"base_weights":[4.7476827E-3,1.0683615E-1,-4.2898193E-1,-7.2005585E-2,5.3784275E-1,-5.879564E-1,9.520299E-1,1.9028574E-1,-7.965645E-1,-7.918591E-1,6.520228E-1,-8.10867E-1,9.010612E-3,-2.2400147E-1,5.381077E-1,-9.5830315E-1,3.2684565E-1,9.2945546E-1,8.0456614E-2,-1.1689295E-1,-8.6744416E-1,4.5188797E-1,-6.743508E-1],"categories":[],"categories_nodes":[],"categories_segments":[],"categories_sizes":[],"default_left":[true,true,true,true,true,true,false,true,true,false,true,true,true,false,false,false,false,false,false,false,false,false,false],"id":33,"left_children":[1,3,5,7,9,11,-1,13,15,-1,17,19,21,-1,-1,-1,-1,-1,-1,-1,-1,-1,-1],"loss_changes":[4.078091E0,5.7825203E0,4.412756E0,1.0327606E1,3.8519392E0,2.183858E0,0E0,5.901873E0,2.9341154E0,0E0,3.220521E0,3.6663294E-1,1.9499214E0,0E0,0E0,0E0,0E0,0E0,0E0,0E0,0E0,0E0,0E0],"parents":[2147483647,0,0,1,1,2,2,3,3,4,4,5,5,7,7,8,8,10,10,11,11,12,12],"right_children":[2,4,6,8,10,12,-1,14,16,-1,18,20,22,-1,-1,-1,-1,-1,-1,-1,-1,-1,-1],"split_conditions":[2.695E-11,2.53545E2,2.891751E4,1.685E0,4.10765E-2,1.85E1,1.9040598E-1,8.5549604E-4,5E-1,-1.5837182E-1,1.003335E-1,3.52E-9,5.771132E5,-4.4800293E-2,1.0762154E-1,-1.9166063E-1,6.536913E-2,1.8589109E-1,1.6091323E-2,-2.337859E-2,-1.7348884E-1,9.037759E-2,-1.3487016E-1],"split_indices":[24,0,1,0,10,6,0,21,22,0,11,23,2,0,0,0,0,0,0,0,0,0,0],"split_type":[0,0,0,0,0,0,0,0,0,0,0,0,0,0,0,0,0,0,0,0,0,0,0],"sum_hessian":[9.0065285E1,7.351539E1,1.6549896E1,5.2545227E1,2.0970163E1,1.5356407E1,1.1934887E0,3.9120815E1,1.3424413E1,1.1889442E0,1.978122E1,1.0920373E1,4.436034E0,1.801697E1,2.1103846E1,1.1863396E1,1.561017E0,1.2895643E1,6.8855762E0,1.0543102E0,9.866063E0,2.8971548E0,1.5388795E0],"tree_param":{"num_deleted":"0","num_feature":"43","num_nodes":"23","size_leaf_vector":"0"}},{"base_weights":[-4.7628354E-2,-1.1647936E-1,4.5674992E-1,-2.2809799E-1,2.3337927E-1,1.8318545E-2,1.0664761E0,-7.096341E-2,-5.1391125E-1,-4.6569616E-1,6.39383E-1,-4.929234E-1,6.297155E-1,-1.7376888E-1,1.1752853E0,-7.2674125E-1,8.7631136E-1,6.099318E-1,-7.277342E-1,8.8673E-1,-4.5710328E-1,1.3181834E-2,-6.4973116E-1,9.7053915E-1,-9.5912114E-2],"categories":[],"categories_nodes":[],"categories_segments":[],"categories_sizes":[],"default_left":[true,true,true,true,true,true,false,true,true,true,true,true,true,false,false,false,false,false,false,false,false,false,false,false,false],"id":34,"left_children":[1,3,5,7,9,11,-1,13,15,17,19,21,23,-1,-1,-1,-1,-1,-1,-1,-1,-1,-1,-1,-1],"loss_changes":[3.2984674E0,3.2953532E0,3.0353405E0,2.8130505E0,6.1375937E0,2.7062917E0,0E0,5.5981507E0,7.249138E0,2.7375832E0,4.0497184E0,3.8437057E-1,1.0649453E0,0E0,0E0,0E0,0E0,0E0,0E0,0E0,0E0,0E0,0E0,0E0,0E0],"parents":[2147483647,0,0,1,1,2,2,3,3,4,4,5,5,7,7,8,8,9,9,10,10,11,11,12,12],"right_children":[2,4,6,8,10,12,-1,14,16,18,20,22,24,-1,-1,-1,-1,-1,-1,-1,-1,-1,-1,-1,-1],"split_conditions":[2.5096545E0,3.545185E-1,1.5644999E-3,4.2287E-2,6.6E-4,1.2059999E1,2.1329522E-1,1.9728E-2,1.9001201E-1,4.99972E-1,4.1435E0,3.129064E0,3.068055E3,-3.4753777E-2,2.3505707E-1,-1.4534825E-1,1.7526227E-1,1.2198637E-1,-1.4554684E-1,1.77346E-1,-9.142066E-2,2.6363668E-3,-1.2994623E-1,1.9410783E-1,-1.9182423E-2],"split_indices":[11,8,21,11,21,1,0,11,34,10,13,8,1,0,0,0,0,0,0,0,0,0,0,0,0],"split_type":[0,0,0,0,0,0,0,0,0,0,0,0,0,0,0,0,0,0,0,0,0,0,0,0,0],"sum_hessian":[9.245091E1,8.2023254E1,1.0427659E1,6.244794E1,1.9575314E1,6.665087E0,3.7625718E0,4.110016E1,2.1347782E1,7.1379128E0,1.2437402E1,3.7353842E0,2.929703E0,3.876308E1,2.337075E0,1.892742E1,2.4203622E0,1.1381847E0,5.999728E0,1.0304252E1,2.1331494E0,1.1002398E0,2.6351445E0,1.763758E0,1.1659449E0],"tree_param":{"num_deleted":"0","num_feature":"43","num_nodes":"25","size_leaf_vector":"0"}},{"base_weights":[3.4413505E-2,-9.259056E-2,5.023171E-1,6.584261E-2,-7.0396924E-1,6.5101343E-1,-4.3625167E-1,2.2853425E-1,-4.060593E-1,-9.250105E-1,-1.751205E-1,-4.5214817E-1,7.466037E-1,6.0081758E-2,-6.7990303E-1,-1.3377732E-1,4.160623E-1,-7.5415283E-1,4.7174025E-1,1.7394428E-1,-1.0593507E0,3.130594E-1,-4.7746116E-1,1.0527618E0,1.6300592E-1],"categories":[],"categories_nodes":[],"categories_segments":[],"categories_sizes":[],"default_left":[true,true,true,true,true,true,true,true,true,true,true,false,true,false,false,false,false,false,false,false,false,false,false,false,false],"id":35,"left_children":[1,3,5,7,9,11,13,15,17,19,21,-1,23,-1,-1,-1,-1,-1,-1,-1,-1,-1,-1,-1,-1],"loss_changes":[5.5343704E0,7.1635957E0,3.0571904E0,4.6432137E0,1.6157641E0,2.1887083E0,4.4189888E-1,3.093733E0,5.1087627E0,1.7331753E0,9.931735E-1,0E0,2.7821674E0,0E0,0E0,0E0,0E0,0E0,0E0,0E0,0E0,0E0,0E0,0E0,0E0],"parents":[2147483647,0,0,1,1,2,2,3,3,4,4,5,5,6,6,7,7,8,8,9,9,10,10,12,12],"right_children":[2,4,6,8,10,12,14,16,18,20,22,-1,24,-1,-1,-1,-1,-1,-1,-1,-1,-1,-1,-1,-1],"split_conditions":[8.5E0,1.5214571E1,1.56E2,1.5E0,3.2947052E-1,3.73695E-2,-4.021618E1,6.20745E-4,1.385958E3,4.088885E3,1.7196076E0,-9.0429634E-2,2.284529E0,1.2016351E-2,-1.359806E-1,-2.6755465E-2,8.321246E-2,-1.5083057E-1,9.434805E-2,3.478886E-2,-2.1187015E-1,6.261188E-2,-9.549224E-2,2.1055236E-1,3.2601185E-2],"split_indices":[6,19,3,22,8,10,21,21,35,2,8,0,10,0,0,0,0,0,0,0,0,0,0,0,0],"split_type":[0,0,0,0,0,0,0,0,0,0,0,0,0,0,0,0,0,0,0,0,0,0,0,0,0],"sum_hessian":[9.134834E1,7.2477684E1,1.8870659E1,5.8269886E1,1.4207801E1,1.6554348E1,2.3163104E0,4.3714653E1,1.455523E1,9.491548E0,4.7162538E0,1.0226278E0,1.553172E1,1.0107529E0,1.3055574E0,1.5007057E1,2.8707598E1,1.0523121E1,4.0321093E0,1.0017821E0,8.489765E0,1.7902085E0,2.9260454E0,9.660082E0,5.871639E0],"tree_param":{"num_deleted":"0","num_feature":"43","num_nodes":"25","size_leaf_vector":"0"}},{"base_weights":[9.092574E-3,7.213721E-2,-5.2441555E-1,-7.910441E-2,3.7735385E-1,-9.8854166E-1,7.319714E-2,2.9688198E-2,-8.513336E-1,9.511566E-1,-9.017988E-2,-6.6616994E-1,4.3425247E-1,8.912394E-1,-8.047838E-2,2.4743502E-1,-1.0990118E0,1.1107763E0,-9.660735E-2,-8.0555433E-1,3.175055E-1,8.040318E-1,-2.2336513E-1],"categories":[],"categories_nodes":[],"categories_segments":[],"categories_sizes":[],"default_left":[true,true,true,true,true,false,true,true,true,true,true,false,true,false,false,false,false,false,false,false,false,false,false],"id":36,"left_children":[1,3,5,7,9,-1,11,13,15,17,19,-1,21,-1,-1,-1,-1,-1,-1,-1,-1,-1,-1],"loss_changes":[2.980122E0,3.6817696E0,2.6700976E0,4.5389357E0,7.164406E0,0E0,1.6307633E0,4.633095E0,2.0865736E0,2.1030712E0,4.7625294E0,0E0,1.1478478E0,0E0,0E0,0E0,0E0,0E0,0E0,0E0,0E0,0E0,0E0],"parents":[2147483647,0,0,1,1,2,2,3,3,4,4,6,6,7,7,8,8,9,9,10,10,12,12],"right_children":[2,4,6,8,10,-1,12,14,16,18,20,-1,22,-1,-1,-1,-1,-1,-1,-1,-1,-1,-1],"split_conditions":[5.65E1,1.2422991E0,5.3E1,6.255E-13,1.02573E2,-1.9770834E-1,1.25537E-1,2.5201E-4,6.974846E4,2.5159984E4,9.9764233E2,-1.33234E-1,5.4204844E3,1.7824788E-1,-1.6095676E-2,4.9487006E-2,-2.1980236E-1,2.2215526E-1,-1.932147E-2,-1.6111086E-1,6.3501105E-2,1.6080636E-1,-4.4673026E-2],"split_indices":[4,35,6,23,35,0,10,21,2,1,35,0,19,0,0,0,0,0,0,0,0,0,0],"split_type":[0,0,0,0,0,0,0,0,0,0,0,0,0,0,0,0,0,0,0,0,0,0,0],"sum_hessian":[8.6477554E1,7.811187E1,8.365689E0,5.2725857E1,2.5386007E1,4.3405337E0,4.0251555E0,4.7057846E1,5.668012E0,1.093325E1,1.4452758E1,1.0434077E0,2.9817479E0,4.531284E0,4.252656E1,1.0428082E0,4.625204E0,9.435653E0,1.4975973E0,4.892267E0,9.560491E0,1.7660514E0,1.2156965E0],"tree_param":{"num_deleted":"0","num_feature":"43","num_nodes":"23","size_leaf_vector":"0"}},{"base_weights":[-6.5790643E-3,4.3408547E-2,-8.8503706E-1,4.237789E-1,-5.716643E-2,8.81236E-1,-2.188085E-1,2.9136604E-2,-5.6908995E-1,9.9917346E-1,-1.02070644E-1,-6.4510286E-1,6.021167E-1,-8.649136E-2,6.15396E-1,-8.083331E-1,4.2359367E-1],"categories":[],"categories_nodes":[],"categories_segments":[],"categories_sizes":[],"default_left":[true,true,false,true,true,true,true,true,true,false,false,false,false,false,false,false,false],"id":37,"left_children":[1,3,-1,5,7,9,11,13,15,-1,-1,-1,-1,-1,-1,-1,-1],"loss_changes":[3.8945298E0,3.2392304E0,0E0,5.3938503E0,2.9919908E0,1.3236408E0,3.2436714E0,4.024392E0,2.6613905E0,0E0,0E0,0E0,0E0,0E0,0E0,0E0,0E0],"parents":[2147483647,0,0,1,1,3,3,4,4,5,5,6,6,7,7,8,8],"right_children":[2,4,-1,6,8,10,12,14,16,-1,-1,-1,-1,-1,-1,-1,-1],"split_conditions":[6.336044E5,9.86E-4,-1.7700742E-1,1.2955E0,2.95E1,1.185E2,1.7E1,1.0588332E1,2.642159E5,1.9983469E-1,-2.0414129E-2,-1.2902057E-1,1.2042334E-1,-1.7298272E-2,1.230792E-1,-1.6166662E-1,8.4718734E-2],"split_indices":[2,8,0,21,17,17,6,9,24,0,0,0,0,0,0,0,0],"split_type":[0,0,0,0,0,0,0,0,0,0,0,0,0,0,0,0,0],"sum_hessian":[8.681449E1,8.3039795E1,3.774696E0,1.669321E1,6.634659E1,9.53434E0,7.158871E0,5.7582138E1,8.764447E0,8.498855E0,1.035486E0,4.8529706E0,2.3059003E0,4.880817E1,8.773968E0,7.212014E0,1.552433E0],"tree_param":{"num_deleted":"0","num_feature":"43","num_nodes":"17","size_leaf_vector":"0"}},{"base_weights":[-3.0156238E-2,-1.2460372E-1,3.6245728E-1,-3.051276E-2,-5.862923E-1,5.291731E-1,-5.8491695E-1,5.478864E-2,-6.26257E-1,-1.2486957E0,-1.3777918E-1,7.796649E-1,-3.1230143E-1,-2.914427E-1,2.5406915E-1,-9.5485216E-1,2.9922396E-1,-3.9873052E-1,-1.4009928E0,9.0475273E-1,-4.343613E-1,-3.196215E-2,9.926454E-1,3.0478886E-1,-7.0216954E-1],"categories":[],"categories_nodes":[],"categories_segments":[],"categories_sizes":[],"default_left":[true,true,true,true,true,true,false,true,true,true,true,true,true,false,false,false,false,false,false,false,false,false,false,false,false],"id":38,"left_children":[1,3,5,7,9,11,-1,13,15,17,19,21,23,-1,-1,-1,-1,-1,-1,-1,-1,-1,-1,-1,-1],"loss_changes":[3.1401362E0,2.93711E0,2.906197E0,2.9595127E0,3.233042E0,3.3009849E0,0E0,3.6116912E0,2.5027242E0,2.4312496E-2,2.853564E0,2.0133967E0,1.1863284E0,0E0,0E0,0E0,0E0,0E0,0E0,0E0,0E0,0E0,0E0,0E0,0E0],"parents":[2147483647,0,0,1,1,2,2,3,3,4,4,5,5,7,7,8,8,9,9,10,10,11,11,12,12],"right_children":[2,4,6,8,10,12,-1,14,16,18,20,22,24,-1,-1,-1,-1,-1,-1,-1,-1,-1,-1,-1,-1],"split_conditions":[6.5E0,3.1470447E2,3.175E2,4.5E0,8.754646E2,7.08643E3,-1.1698339E-1,1.004525E3,2.943825E3,8.25E-3,2.7558905E2,5E-1,2.227395E3,-5.828854E-2,5.081383E-2,-1.9097044E-1,5.9844792E-2,-7.9746105E-2,-2.8019854E-1,1.8095055E-1,-8.6872265E-2,-6.39243E-3,1.9852908E-1,6.095777E-2,-1.4043391E-1],"split_indices":[7,35,17,3,35,0,0,2,0,8,36,22,1,0,0,0,0,0,0,0,0,0,0,0,0],"split_type":[0,0,0,0,0,0,0,0,0,0,0,0,0,0,0,0,0,0,0,0,0,0,0,0,0],"sum_hessian":[8.246438E1,6.702372E1,1.54406595E1,5.656251E1,1.0461207E1,1.3505447E1,1.9352125E0,5.027232E1,6.2901893E0,3.5032387E0,6.957968E0,1.0463967E1,3.0414805E0,1.8195997E1,3.2076324E1,4.6186023E0,1.6715868E0,1.0821123E0,2.4211264E0,1.0868666E0,5.871102E0,2.351768E0,8.112199E0,1.2620735E0,1.7794069E0],"tree_param":{"num_deleted":"0","num_feature":"43","num_nodes":"25","size_leaf_vector":"0"}},{"base_weights":[-9.4895855E-2,1.15399905E-1,-3.3497906E-1,1.7072561E-1,-7.2446394E-1,-5.928881E-1,4.490468E-2,6.0536407E-2,7.469059E-1,3.238511E-1,-7.9442865E-1,-3.990984E-1,7.5149757E-1,2.1041009E-1,-4.5223418E-1,1.0210588E-1,8.542231E-1,-1.4588746E-1,8.466622E-1,-8.9725083E-1,6.672454E-2,4.1861618E-1,-6.5404785E-1,1.1047465E0,-1.493108E-1],"categories":[],"categories_nodes":[],"categories_segments":[],"categories_sizes":[],"default_left":[true,true,true,true,false,true,true,true,true,true,true,true,true,false,false,false,false,false,false,false,false,false,false,false,false],"id":39,"left_children":[1,3,5,7,-1,9,11,13,15,17,19,21,23,-1,-1,-1,-1,-1,-1,-1,-1,-1,-1,-1,-1],"loss_changes":[4.1668797E0,2.1835494E0,3.7923217E0,2.646715E0,0E0,4.4999657E0,5.467638E0,2.9141479E0,3.7769842E-1,1.3143375E0,1.7523565E0,2.5188084E0,2.2979712E0,0E0,0E0,0E0,0E0,0E0,0E0,0E0,0E0,0E0,0E0,0E0,0E0],"parents":[2147483647,0,0,1,1,2,2,3,3,5,5,6,6,7,7,8,8,9,9,10,10,11,11,12,12],"right_children":[2,4,6,8,-1,10,12,14,16,18,20,22,24,-1,-1,-1,-1,-1,-1,-1,-1,-1,-1,-1,-1],"split_conditions":[9.79695E2,3.2365E3,8.246321E-3,6.5E0,-1.448928E-1,3.55E-1,1.04762E3,6.136177E0,3.061E1,7.389295E3,1.2568998E1,2.8409832E0,4.6448E-2,4.208202E-2,-9.044684E-2,2.0421175E-2,1.7084461E-1,-2.9177492E-2,1.6933244E-1,-1.7945017E-1,1.3344908E-2,8.372324E-2,-1.3080958E-1,2.2094929E-1,-2.986216E-2],"split_indices":[1,17,21,6,0,0,0,18,1,1,37,19,11,0,0,0,0,0,0,0,0,0,0,0,0],"split_type":[0,0,0,0,0,0,0,0,0,0,0,0,0,0,0,0,0,0,0,0,0,0,0,0,0],"sum_hessian":[8.076565E1,4.333053E1,3.743512E1,4.140004E1,1.9304893E0,2.1963228E1,1.547189E1,3.568137E1,5.71867E0,3.848921E0,1.8114307E1,9.768696E0,5.703194E0,2.8067423E1,7.6139464E0,1.0944229E0,4.624247E0,2.4071162E0,1.4418049E0,1.6144703E1,1.9696046E0,2.169232E0,7.5994644E0,3.9340682E0,1.769126E0],"tree_param":{"num_deleted":"0","num_feature":"43","num_nodes":"25","size_leaf_vector":"0"}},{"base_weights":[-6.832335E-2,1.9023111E-2,-8.370575E-1,1.2021661E-1,-4.265825E-1,-1.1223991E0,2.8528792E-1,2.980215E-2,8.8617784E-1,6.587258E-2,-7.982497E-1,-1.3645983E0,-3.099824E-2,-4.257007E-1,1.2923352E-1,1.271323E0,-7.4367285E-2,-6.0635304E-1,4.8771334E-1,-9.0388954E-1,-1.0830266E-1],"categories":[],"categories_nodes":[],"categories_segments":[],"categories_sizes":[],"default_left":[true,true,true,true,true,true,false,true,true,true,true,false,false,false,false,false,false,false,false,false,false],"id":40,"left_children":[1,3,5,7,9,11,-1,13,15,17,19,-1,-1,-1,-1,-1,-1,-1,-1,-1,-1],"loss_changes":[5.161629E0,3.1984186E0,2.831389E0,3.9665623E0,2.45688E0,1.6638575E0,0E0,2.4375367E0,2.3336658E0,2.1598568E0,4.5329762E-1,0E0,0E0,0E0,0E0,0E0,0E0,0E0,0E0,0E0,0E0],"parents":[2147483647,0,0,1,1,2,2,3,3,4,4,5,5,7,7,8,8,9,9,10,10],"right_children":[2,4,6,8,10,12,-1,14,16,18,20,-1,-1,-1,-1,-1,-1,-1,-1,-1,-1],"split_conditions":[1.697271E4,2.25E1,1.0296814E1,8.632197E3,2E-6,4.94575E-2,5.7057586E-2,2.0725E-3,6.702925E3,9.5E0,1.39E2,-2.7291965E-1,-6.199648E-3,-8.514014E-2,2.5846705E-2,2.542646E-1,-1.4873457E-2,-1.2127061E-1,9.7542666E-2,-1.807779E-1,-2.1660533E-2],"split_indices":[0,4,12,35,8,11,0,8,0,6,22,0,0,0,0,0,0,0,0,0,0],"split_type":[0,0,0,0,0,0,0,0,0,0,0,0,0,0,0,0,0,0,0,0,0],"sum_hessian":[7.5634346E1,6.8793076E1,6.841274E0,5.6656948E1,1.2136126E1,5.4544926E0,1.3867812E0,5.160444E1,5.052507E0,5.5737424E0,6.5623837E0,4.2590284E0,1.195464E0,8.658379E0,4.294606E1,3.3755038E0,1.6770029E0,1.9804279E0,3.5933146E0,5.422104E0,1.1402795E0],"tree_param":{"num_deleted":"0","num_feature":"43","num_nodes":"21","size_leaf_vector":"0"}},{"base_weights":[4.004909E-2,-2.480553E-1,1.3825323E-1,3.1204453E-1,-6.1365914E-1,4.399303E-1,-1.3104641E-1,5.685754E-1,-5.044137E-1,-9.9487996E-1,-2.1744916E-1,-2.899742E-1,5.4636014E-1,-4.1937226E-1,1.6354239E-1,8.070994E-1,-3.753263E-1,8.6180305E-1,-7.4484134E-1,2.4706395E-1,-8.674232E-1,8.2355696E-1,1.7128679E-1,3.591954E-1,-7.0848674E-1,-1.858014E-1,7.4303776E-1],"categories":[],"categories_nodes":[],"categories_segments":[],"categories_sizes":[],"default_left":[true,true,true,true,true,true,true,true,false,false,true,true,true,true,true,false,false,false,false,false,false,false,false,false,false,false,false],"id":41,"left_children":[1,3,5,7,9,11,13,15,-1,-1,17,19,21,23,25,-1,-1,-1,-1,-1,-1,-1,-1,-1,-1,-1,-1],"loss_changes":[2.3395226E0,4.506142E0,5.0464177E0,2.1685803E0,1.7601752E0,2.4261532E0,2.8897722E0,1.9479601E0,0E0,0E0,5.0226183E0,1.5689261E0,2.543795E0,4.096052E0,3.609638E0,0E0,0E0,0E0,0E0,0E0,0E0,0E0,0E0,0E0,0E0,0E0,0E0],"parents":[2147483647,0,0,1,1,2,2,3,3,4,4,5,5,6,6,7,7,10,10,11,11,12,12,13,13,14,14],"right_children":[2,4,6,8,10,12,14,16,-1,-1,18,20,22,24,26,-1,-1,-1,-1,-1,-1,-1,-1,-1,-1,-1,-1],"split_conditions":[5.0649E-4,9.4305E-3,6.11345E2,3.426483E1,2.5E0,9.37215E-2,2.82015E2,3.225E2,-1.0088275E-1,-1.98976E-1,2.0863285E0,4.4468617E4,2.875052E0,3.340115E-1,4.9884E0,1.6141988E-1,-7.506526E-2,1.7236061E-1,-1.4896826E-1,4.941279E-2,-1.7348464E-1,1.647114E-1,3.425736E-2,7.183909E-2,-1.4169735E-1,-3.716028E-2,1.4860755E-1],"split_indices":[21,8,1,37,17,9,0,17,0,0,18,2,12,10,9,0,0,0,0,0,0,0,0,0,0,0,0],"split_type":[0,0,0,0,0,0,0,0,0,0,0,0,0,0,0,0,0,0,0,0,0,0,0,0,0,0,0],"sum_hessian":[8.047686E1,2.0070251E1,6.040661E1,7.984543E0,1.208571E1,2.8191776E1,3.2214832E1,6.306615E0,1.6779282E0,5.3893013E0,6.696408E0,3.368152E0,2.4823624E1,1.606641E1,1.6148422E1,5.1501136E0,1.1565012E0,1.9899999E0,4.706408E0,2.0415857E0,1.3265663E0,1.3586694E1,1.123693E1,4.2849374E0,1.1781473E1,1.0498729E1,5.6496944E0],"tree_param":{"num_deleted":"0","num_feature":"43","num_nodes":"27","size_leaf_vector":"0"}},{"base_weights":[-1.2450721E-2,-8.877389E-2,5.0746804E-1,2.3878767E-1,-2.844122E-1,8.018282E-1,8.8181505E-3,4.2340544E-1,-3.5027957E-1,-4.6565095E-1,1.7526704E-1,9.9815744E-1,3.6209762E-1,-3.795736E-1,6.9674337E-1,6.336872E-1,-3.093946E-1,-6.05724E-1,4.9674132E-1,-7.312142E-1,-1.2887914E-1,7.901539E-1,-2.4678142E-1,-9.959234E-2,6.4255434E-1,-6.766836E-1,9.8669305E-2],"categories":[],"categories_nodes":[],"categories_segments":[],"categories_sizes":[],"default_left":[true,true,true,true,true,true,true,true,true,true,true,false,true,true,false,false,false,false,false,false,false,false,false,false,false,false,false],"id":42,"left_children":[1,3,5,7,9,11,13,15,17,19,21,-1,23,25,-1,-1,-1,-1,-1,-1,-1,-1,-1,-1,-1,-1,-1],"loss_changes":[3.0913358E0,4.4122715E0,1.4571896E0,2.964216E0,3.655618E0,1.7915106E-1,1.5239822E0,3.3036833E0,1.7561373E0,2.6819463E0,3.5316896E0,0E0,5.1745147E-1,5.868631E-1,0E0,0E0,0E0,0E0,0E0,0E0,0E0,0E0,0E0,0E0,0E0,0E0,0E0],"parents":[2147483647,0,0,1,1,2,2,3,3,4,4,5,5,6,6,7,7,8,8,9,9,10,10,12,12,13,13],"right_children":[2,4,6,8,10,12,14,16,18,20,22,-1,24,26,-1,-1,-1,-1,-1,-1,-1,-1,-1,-1,-1,-1,-1],"split_conditions":[2.5787983E0,2.44715E-1,3.457274E0,1E-6,5.5E0,1.52375E1,4.0298966E-3,3.25E1,7.5E0,4.85E-1,4.5E0,1.996315E-1,5.5E0,1.2748976E1,1.3934867E-1,1.2673745E-1,-6.187892E-2,-1.21144794E-1,9.934827E-2,-1.4624284E-1,-2.577583E-2,1.580308E-1,-4.9356285E-2,-1.991847E-2,1.2851088E-1,-1.3533673E-1,1.9733861E-2],"split_indices":[11,13,8,34,7,18,21,17,6,8,22,0,6,18,0,0,0,0,0,0,0,0,0,0,0,0,0],"split_type":[0,0,0,0,0,0,0,0,0,0,0,0,0,0,0,0,0,0,0,0,0,0,0,0,0,0,0],"sum_hessian":[7.576774E1,6.679204E1,8.9757E0,2.4892843E1,4.1899197E1,5.261666E0,3.7140346E0,1.9167E1,5.725844E0,3.0041626E1,1.185757E1,2.759628E0,2.5020375E0,2.6603034E0,1.0537312E0,1.499837E1,4.168629E0,4.6180196E0,1.1078243E0,1.614173E1,1.3899897E1,4.4712176E0,7.386352E0,1.1892226E0,1.3128151E0,1.3849571E0,1.2753462E0],"tree_param":{"num_deleted":"0","num_feature":"43","num_nodes":"27","size_leaf_vector":"0"}},{"base_weights":[9.597729E-2,-1.10908955E-1,3.0296484E-1,-2.5510855E-3,-9.286553E-1,3.7669662E-1,-6.415559E-1,-1.3423237E-1,7.9528695E-1,-1.1504416E0,-1.4372185E-1,2.177735E-1,9.32541E-1,1.0562575E-2,-9.7139E-1,8.9510375E-1,2.1551275E-1,5.7363075E-1,-1.3594063E-1,1.1821905E0,-1.4298892E-1],"categories":[],"categories_nodes":[],"categories_segments":[],"categories_sizes":[],"default_left":[true,true,true,true,true,true,false,true,true,false,false,true,true,false,false,false,false,false,false,false,false],"id":43,"left_children":[1,3,5,7,9,11,-1,13,15,-1,-1,17,19,-1,-1,-1,-1,-1,-1,-1,-1],"loss_changes":[3.3813105E0,3.5268888E0,2.9817927E0,3.9069955E0,6.454601E-1,3.07661E0,0E0,3.8774502E0,1.1200285E-1,0E0,0E0,3.8764074E0,2.3037348E0,0E0,0E0,0E0,0E0,0E0,0E0,0E0,0E0],"parents":[2147483647,0,0,1,1,2,2,3,3,4,4,5,5,7,7,8,8,11,11,12,12],"right_children":[2,4,6,8,10,12,-1,14,16,-1,-1,18,20,-1,-1,-1,-1,-1,-1,-1,-1],"split_conditions":[2.5E0,1.3833488E2,6.2836275E5,3.8796848E-1,8.945E2,6.535905E3,-1.2831119E-1,2.5E0,1.38946E3,-2.3008834E-1,-2.874437E-2,9.06809E-1,1.1144999E-2,2.112515E-3,-1.94278E-1,1.7902075E-1,4.310255E-2,1.1472615E-1,-2.7188126E-2,2.3643811E-1,-2.8597785E-2],"split_indices":[6,23,2,35,38,0,0,4,0,0,0,10,34,0,0,0,0,0,0,0,0],"split_type":[0,0,0,0,0,0,0,0,0,0,0,0,0,0,0,0,0,0,0,0,0],"sum_hessian":[7.717571E1,3.882945E1,3.8346268E1,3.5171997E1,3.657449E0,3.6127254E1,2.219011E0,3.0903246E1,4.2687526E0,2.4886227E0,1.1688263E0,2.917697E1,6.9502854E0,2.718816E1,3.7150862E0,3.1777687E0,1.0909839E0,1.4234494E1,1.4942475E1,5.560439E0,1.3898461E0],"tree_param":{"num_deleted":"0","num_feature":"43","num_nodes":"21","size_leaf_vector":"0"}},{"base_weights":[1.6779888E-2,-1.1158259E-1,1.8174326E-1,-3.27108E-2,-1.4929385E0,-1.5490322E-2,8.340107E-1,-6.0005856E-1,6.919232E-2,5.062848E-1,-1.7454834E-1,1.0364124E0,-2.476193E-2,2.8519663E-1,-8.9098734E-1,9.694203E-1,-1.36890765E-2,9.872107E-1,-2.0609416E-1,-8.070452E-1,1.5853088E-1,1.2724898E0,2.627521E-1],"categories":[],"categories_nodes":[],"categories_segments":[],"categories_sizes":[],"default_left":[true,true,true,true,false,true,true,true,true,true,true,true,false,false,false,false,false,false,false,false,false,false,false],"id":44,"left_children":[1,3,5,7,-1,9,11,13,15,17,19,21,-1,-1,-1,-1,-1,-1,-1,-1,-1,-1,-1],"loss_changes":[1.6279346E0,4.6705847E0,4.3361244E0,2.4697278E0,0E0,2.3112612E0,1.384985E0,1.9277687E0,2.7367253E0,2.4350877E0,4.6090207E0,8.258295E-1,0E0,0E0,0E0,0E0,0E0,0E0,0E0,0E0,0E0,0E0,0E0],"parents":[2147483647,0,0,1,1,2,2,3,3,5,5,6,6,7,7,8,8,9,9,10,10,11,11],"right_children":[2,4,6,8,-1,10,12,14,16,18,20,22,-1,-1,-1,-1,-1,-1,-1,-1,-1,-1,-1],"split_conditions":[2.982816E-3,2.6435E-3,3.0659252E-1,9.3875E1,-2.985877E-1,1.0020335E0,8.5E0,3.255E-4,2.34215E2,1.5E0,4.5E0,1.9839779E0,-4.952386E-3,5.7039328E-2,-1.7819747E-1,1.9388406E-1,-2.7378153E-3,1.9744214E-1,-4.1218832E-2,-1.6140905E-1,3.1706177E-2,2.5449798E-1,5.2550416E-2],"split_indices":[21,21,8,2,0,19,3,21,2,22,6,21,0,0,0,0,0,0,0,0,0,0,0],"split_type":[0,0,0,0,0,0,0,0,0,0,0,0,0,0,0,0,0,0,0,0,0,0,0],"sum_hessian":[7.4921936E1,4.2317295E1,3.2604645E1,4.099998E1,1.317311E0,2.5784225E1,6.82042E0,5.4984922E0,3.550149E1,5.5137753E0,2.0270449E1,5.3521376E0,1.4682823E0,1.3649243E0,4.1335683E0,2.0911956E0,3.3410294E1,3.0613012E0,2.452474E0,6.5015063E0,1.3768943E1,3.6067843E0,1.7453531E0],"tree_param":{"num_deleted":"0","num_feature":"43","num_nodes":"23","size_leaf_vector":"0"}},{"base_weights":[-3.1485874E-2,-1.764434E-1,1.3188432E-1,-3.417423E-1,1.6680898E-1,7.2335535E-1,-6.944362E-2,6.147926E-1,-4.1606197E-1,-4.039451E-1,5.754886E-1,9.7825253E-1,-6.3071024E-1,1.09418705E-1,-5.23814E-1,-2.9369894E-1,-1.109179E0,-3.3904202E-2,-8.283736E-1,8.299523E-1,-4.7883445E-1,4.4068447E-1,1.2888907E0,-2.6164272E-1,5.816946E-1,3.393631E-1,-7.637772E-1],"categories":[],"categories_nodes":[],"categories_segments":[],"categories_sizes":[],"default_left":[true,true,true,true,true,true,true,false,true,true,true,true,false,true,true,false,false,false,false,false,false,false,false,false,false,false,false],"id":45,"left_children":[1,3,5,7,9,11,13,-1,15,17,19,21,-1,23,25,-1,-1,-1,-1,-1,-1,-1,-1,-1,-1,-1,-1],"loss_changes":[1.8807244E0,2.4393E0,4.509446E0,2.2937388E0,3.572523E0,3.9294376E0,2.4019587E0,0E0,1.9808664E0,1.0025882E0,2.7467554E0,8.461981E-1,0E0,3.9248989E0,1.9828937E0,0E0,0E0,0E0,0E0,0E0,0E0,0E0,0E0,0E0,0E0,0E0,0E0],"parents":[2147483647,0,0,1,1,2,2,3,3,4,4,5,5,6,6,8,8,9,9,10,10,11,11,13,13,14,14],"right_children":[2,4,6,8,10,12,14,-1,16,18,20,22,-1,24,26,-1,-1,-1,-1,-1,-1,-1,-1,-1,-1,-1,-1],"split_conditions":[3.4125E1,9.65799E-1,2.4148785E4,5.4E-1,6.526255E-4,3.2471309E0,5.7945E-2,1.2295852E-1,5.76861E-1,4.9350003E-4,1.5E0,2.49625E2,-1.2614205E-1,6.9899997E-4,5.2963406E4,-5.873979E-2,-2.218358E-1,-6.7808405E-3,-1.6567473E-1,1.6599046E-1,-9.5766895E-2,8.81369E-2,2.5777814E-1,-5.2328546E-2,1.1633892E-1,6.787262E-2,-1.5275544E-1],"split_indices":[0,11,2,2,21,8,11,0,8,21,7,1,0,11,2,0,0,0,0,0,0,0,0,0,0,0,0],"split_type":[0,0,0,0,0,0,0,0,0,0,0,0,0,0,0,0,0,0,0,0,0,0,0,0,0,0,0],"sum_hessian":[7.743404E1,4.0986713E1,3.6447323E1,2.7667412E1,1.33193035E1,8.597181E0,2.785014E1,1.4703912E0,2.619702E1,5.562462E0,7.756841E0,7.4687624E0,1.1284192E0,2.0528362E1,7.3217773E0,2.3476254E1,2.7207663E0,3.5485322E0,2.0139298E0,6.420135E0,1.3367063E0,3.6210597E0,3.8477027E0,1.1745815E1,8.782548E0,1.5025804E0,5.819197E0],"tree_param":{"num_deleted":"0","num_feature":"43","num_nodes":"27","size_leaf_vector":"0"}},{"base_weights":[-5.2286603E-2,2.9458508E-2,-6.3110787E-1,-6.590995E-2,7.242272E-1,-9.207591E-1,1.7278722E-1,-3.851395E-1,1.0935005E-1,9.527423E-1,-2.7571034E-1,-1.0844065E0,-2.1633364E-1,4.198183E-1,-1.4399214E-1,-5.115424E-1,7.4442065E-1,-3.7796718E-1,4.1941035E-1,1.1847008E0,1.212478E-1],"categories":[],"categories_nodes":[],"categories_segments":[],"categories_sizes":[],"default_left":[true,true,true,true,true,true,true,true,true,true,false,false,false,false,false,false,false,false,false,false,false],"id":46,"left_children":[1,3,5,7,9,11,13,15,17,19,-1,-1,-1,-1,-1,-1,-1,-1,-1,-1,-1],"loss_changes":[3.4114976E0,4.274347E0,2.2357428E0,3.2315273E0,2.041031E0,5.3939915E-1,3.1119668E-1,3.297183E0,5.8368983E0,1.1214843E0,0E0,0E0,0E0,0E0,0E0,0E0,0E0,0E0,0E0,0E0,0E0],"parents":[2147483647,0,0,1,1,2,2,3,3,4,4,5,5,6,6,7,7,8,8,9,9],"right_children":[2,4,6,8,10,12,14,16,18,20,-1,-1,-1,-1,-1,-1,-1,-1,-1,-1,-1],"split_conditions":[6.5E0,2.5E0,4.15E1,2.87988E3,4.35E1,2.85E1,7.075E2,5E-1,2.7E-3,4.5E0,-5.514207E-2,-2.168813E-1,-4.326673E-2,8.396366E-2,-2.879843E-2,-1.02308474E-1,1.4888413E-1,-7.5593434E-2,8.388207E-2,2.3694018E-1,2.424956E-2],"split_indices":[29,29,6,2,17,27,17,22,11,29,0,0,0,0,0,0,0,0,0,0,0],"split_type":[0,0,0,0,0,0,0,0,0,0,0,0,0,0,0,0,0,0,0,0,0],"sum_hessian":[7.0707664E1,6.278924E1,7.918422E0,5.6006554E1,6.782689E0,5.7141767E0,2.2042456E0,1.9425747E1,3.6580807E1,5.559401E0,1.2232879E0,4.1992216E0,1.5149552E0,1.0557104E0,1.1485353E0,1.7962765E1,1.4629827E0,1.4139287E1,2.244152E1,4.0146623E0,1.5447385E0],"tree_param":{"num_deleted":"0","num_feature":"43","num_nodes":"21","size_leaf_vector":"0"}},{"base_weights":[6.420451E-2,2.523429E-1,-2.4517752E-1,1.818744E-1,1.272322E0,-3.1192872E-1,7.2572815E-1,4.8265612E-1,-8.051208E-2,-5.3080547E-1,3.8542174E-2,6.174838E-1,1.4510073E-1,6.65269E-2,-8.3731186E-1,-6.286382E-1,7.0807554E-2,5.4603523E-1,-3.8127303E-1],"categories":[],"categories_nodes":[],"categories_segments":[],"categories_sizes":[],"default_left":[true,true,true,true,false,true,false,true,true,true,true,false,false,false,false,false,false,false,false],"id":47,"left_children":[1,3,5,7,-1,9,-1,11,13,15,17,-1,-1,-1,-1,-1,-1,-1,-1],"loss_changes":[4.357048E0,3.1022358E0,2.067717E0,3.554768E0,0E0,2.1133711E0,0E0,8.615618E-1,2.7987902E0,1.0369935E0,2.6414714E0,0E0,0E0,0E0,0E0,0E0,0E0,0E0,0E0],"parents":[2147483647,0,0,1,1,2,2,3,3,5,5,7,7,8,8,9,9,10,10],"right_children":[2,4,6,8,-1,10,-1,12,14,16,18,-1,-1,-1,-1,-1,-1,-1,-1],"split_conditions":[1.276727E0,4.556553E4,4.583258E4,2.1628762E4,2.5446442E-1,6.9605265E0,1.4514564E-1,5.059255E-1,1.15E1,1.3994442E1,9.5535E1,1.2349676E-1,2.9020146E-2,1.330538E-2,-1.6746238E-1,-1.2572764E-1,1.4161511E-2,1.0920705E-1,-7.6254606E-2],"split_indices":[10,38,1,2,0,10,0,10,22,21,0,0,0,0,0,0,0,0,0],"split_type":[0,0,0,0,0,0,0,0,0,0,0,0,0,0,0,0,0,0,0],"sum_hessian":[7.279191E1,4.5380142E1,2.7411768E1,4.3549686E1,1.8304571E0,2.6283464E1,1.1283027E0,1.9899168E1,2.3650518E1,1.586246E1,1.0421004E1,1.3626955E1,6.272213E0,2.05667E1,3.083819E0,1.3605111E1,2.2573488E0,4.58173E0,5.8392744E0],"tree_param":{"num_deleted":"0","num_feature":"43","num_nodes":"19","size_leaf_vector":"0"}},{"base_weights":[-1.0456758E-1,-5.558995E-1,1.0273784E-1,-1.4020574E-1,-8.661713E-1,7.836199E-1,3.714345E-2,3.8986918E-1,-3.6104465E-1,-9.567189E-1,6.544146E-2,1.0157472E0,9.909846E-2,-1.1446853E0,9.236316E-2,-3.2330588E-1,8.2526165E-1,4.720893E-1,-6.696736E-1,-1.0503366E0,-5.2971568E-2,-7.606794E-2,4.3884367E-1],"categories":[],"categories_nodes":[],"categories_segments":[],"categories_sizes":[],"default_left":[true,true,true,true,true,true,true,true,true,true,false,false,false,false,true,false,false,false,false,false,false,false,false],"id":48,"left_children":[1,3,5,7,9,11,13,15,17,19,-1,-1,-1,-1,21,-1,-1,-1,-1,-1,-1,-1,-1],"loss_changes":[6.8783116E0,2.8582845E0,2.2398086E0,1.4362749E0,1.1622314E0,6.007571E-1,3.1982503E0,1.4267375E0,2.458406E0,9.54978E-1,0E0,0E0,0E0,0E0,2.7293856E0,0E0,0E0,0E0,0E0,0E0,0E0,0E0,0E0],"parents":[2147483647,0,0,1,1,2,2,3,3,4,4,5,5,6,6,7,7,8,8,9,9,14,14],"right_children":[2,4,6,8,10,12,14,16,18,20,-1,-1,-1,-1,22,-1,-1,-1,-1,-1,-1,-1,-1],"split_conditions":[2.99895E-1,5E-1,4.524065E-1,5E-1,2.0699573E2,3.0936748E-1,4.9965E-1,5E-7,4.9627784E-1,3.6976272E5,1.3088292E-2,2.0314944E-1,1.9819692E-2,-2.2893706E-1,5.5E0,-6.4661175E-2,1.6505234E-1,9.441786E-2,-1.3393472E-1,-2.1006732E-1,-1.0594314E-2,-1.5213588E-2,8.776873E-2],"split_indices":[12,3,12,5,36,11,9,9,19,2,0,0,0,0,6,0,0,0,0,0,0,0,0],"split_type":[0,0,0,0,0,0,0,0,0,0,0,0,0,0,0,0,0,0,0,0,0,0,0],"sum_hessian":[7.190446E1,2.2102589E1,4.980187E1,1.006699E1,1.2035598E1,3.4143043E0,4.638756E1,2.7355373E0,7.3314524E0,1.0944868E1,1.09073E0,2.1883392E0,1.225965E0,1.189963E0,4.51976E1,1.1345602E0,1.6009771E0,1.8385938E0,5.4928584E0,9.770551E0,1.1743171E0,3.093832E1,1.425928E1],"tree_param":{"num_deleted":"0","num_feature":"43","num_nodes":"23","size_leaf_vector":"0"}},{"base_weights":[-3.4612805E-2,5.227495E-2,-4.1953635E-1,1.6607982E-1,-3.7107304E-1,-5.9068584E-1,8.3397925E-1,-5.5546504E-2,5.496834E-1,-1.1486607E0,-1.7889183E-3,-8.069965E-1,2.3361633E-2,3.27361E-1,-3.699283E-1,-1.5263215E-1,6.909779E-1,6.249946E-1,-5.3968614E-1,-9.3068063E-1,-2.8178666E-2,4.7950357E-1,-5.447604E-1],"categories":[],"categories_nodes":[],"categories_segments":[],"categories_sizes":[],"default_left":[true,true,true,true,true,true,false,true,true,false,true,true,true,false,false,false,false,false,false,false,false,false,false],"id":49,"left_children":[1,3,5,7,9,11,-1,13,15,-1,17,19,21,-1,-1,-1,-1,-1,-1,-1,-1,-1,-1],"loss_changes":[2.471301E0,2.9830983E0,3.4098465E0,4.152263E0,3.7757912E0,1.6857443E0,0E0,3.9294717E0,1.8762808E0,0E0,3.6823332E0,8.704362E-1,1.3602597E0,0E0,0E0,0E0,0E0,0E0,0E0,0E0,0E0,0E0,0E0],"parents":[2147483647,0,0,1,1,2,2,3,3,4,4,5,5,7,7,8,8,10,10,11,11,12,12],"right_children":[2,4,6,8,10,12,-1,14,16,-1,18,20,22,-1,-1,-1,-1,-1,-1,-1,-1,-1,-1],"split_conditions":[2.8784288E5,4.2165E-3,1.13701055E5,3.1325E1,4.249905E-1,1.45E1,1.6679585E-1,5.354425E-1,1.460955E-1,-2.2973214E-1,1.5E0,1.1014223E1,1.7620115E0,6.54722E-2,-7.398566E-2,-3.052643E-2,1.3819557E-1,1.2499892E-1,-1.0793723E-1,-1.8613613E-1,-5.6357333E-3,9.5900714E-2,-1.0895208E-1],"split_indices":[2,34,1,0,34,6,0,10,10,0,22,13,10,0,0,0,0,0,0,0,0,0,0],"split_type":[0,0,0,0,0,0,0,0,0,0,0,0,0,0,0,0,0,0,0,0,0,0,0],"sum_hessian":[7.223544E1,5.9637764E1,1.2597678E1,4.748145E1,1.2156315E1,1.1549532E1,1.0481459E0,3.0636475E1,1.6844973E1,3.2346752E0,8.92164E0,8.308477E0,3.2410543E0,1.3794233E1,1.6842241E1,2.8078897E0,1.4037084E1,4.0455966E0,4.8760433E0,7.0015674E0,1.3069104E0,1.8842143E0,1.35684E0],"tree_param":{"num_deleted":"0","num_feature":"43","num_nodes":"23","size_leaf_vector":"0"}},{"base_weights":[1.0607523E-1,-5.9048634E-2,2.8227907E-1,1.8884395E-1,-4.4747537E-1,3.7387142E-1,-6.850197E-1,-7.4038066E-2,7.62947E-1,-1.1140257E0,-1.034977E-1,4.4078892E-1,-5.7288486E-1,-2.0445862E-1,-8.1148523E-1,8.896271E-2,-6.6121733E-1,1.1250231E0,-1.679241E-1,5.904183E-1,-5.8780485E-1,5.0571424E-1,-5.99597E-1],"categories":[],"categories_nodes":[],"categories_segments":[],"categories_sizes":[],"default_left":[true,true,true,true,true,true,true,true,true,false,true,true,false,false,false,false,false,false,false,false,false,false,false],"id":50,"left_children":[1,3,5,7,9,11,13,15,17,-1,19,21,-1,-1,-1,-1,-1,-1,-1,-1,-1,-1,-1],"loss_changes":[2.021178E0,3.5886512E0,3.2242837E0,3.5153174E0,3.2033296E0,2.2324128E0,3.165877E-2,1.6506333E0,2.644847E0,0E0,3.926082E0,2.3129687E0,0E0,0E0,0E0,0E0,0E0,0E0,0E0,0E0,0E0,0E0,0E0],"parents":[2147483647,0,0,1,1,2,2,3,3,4,4,5,5,6,6,7,7,8,8,10,10,11,11],"right_children":[2,4,6,8,10,12,14,16,18,-1,20,22,-1,-1,-1,-1,-1,-1,-1,-1,-1,-1,-1],"split_conditions":[2.5E0,3.7589996E1,5.196115E-1,9.974765E-1,6.28504E3,8.5E0,4.5E0,5.584795E-1,7.765586E0,-2.2280514E-1,2.856793E4,3.2365E3,-1.1457697E-1,-4.0891726E-2,-1.6229706E-1,1.7792543E-2,-1.3224347E-1,2.2500463E-1,-3.3584822E-2,1.18083656E-1,-1.17560975E-1,1.01142846E-1,-1.199194E-1],"split_indices":[6,1,8,11,2,26,3,13,13,0,2,17,0,0,0,0,0,0,0,0,0,0,0],"split_type":[0,0,0,0,0,0,0,0,0,0,0,0,0,0,0,0,0,0,0,0,0,0,0],"sum_hessian":[6.789424E1,3.5392326E1,3.2501915E1,2.1918097E1,1.347423E1,3.0250977E1,2.250939E0,1.5631475E1,6.2866216E0,3.8245213E0,9.649709E0,2.8753105E1,1.4978709E0,1.014108E0,1.236831E0,1.2899163E1,2.7323122E0,4.3759575E0,1.9106638E0,3.8764405E0,5.7732677E0,2.7547895E1,1.2052104E0],"tree_param":{"num_deleted":"0","num_feature":"43","num_nodes":"23","size_leaf_vector":"0"}},{"base_weights":[2.517504E-2,2.1513958E-1,-1.23823486E-1,-4.958378E-2,7.020353E-1,-9.600661E-1,-1.6295727E-2,-2.7368766E-1,5.384643E-1,1.0694821E0,-5.841349E-2,-1.0914142E0,-3.2773694E-1,1.7382327E-1,-4.1592383E-1,-2.8963903E-2,-9.466829E-1,9.540115E-1,-3.3643273E-1,1.7009577E0,4.1849402E-1,-7.21802E-1,9.044281E-1,-8.462327E-3,8.9439535E-1,-5.7460666E-1,3.1446567E-1],"categories":[],"categories_nodes":[],"categories_segments":[],"categories_sizes":[],"default_left":[true,true,true,true,true,true,true,true,true,true,true,false,false,true,true,false,false,false,false,false,false,false,false,false,false,false,false],"id":51,"left_children":[1,3,5,7,9,11,13,15,17,19,21,-1,-1,23,25,-1,-1,-1,-1,-1,-1,-1,-1,-1,-1,-1,-1],"loss_changes":[1.9579651E0,3.947867E0,3.4799666E0,2.862183E0,3.068675E0,8.737087E-3,2.766671E0,2.538415E0,2.510127E0,2.2912903E0,3.497208E0,0E0,0E0,3.2566347E0,1.5398684E0,0E0,0E0,0E0,0E0,0E0,0E0,0E0,0E0,0E0,0E0,0E0,0E0],"parents":[2147483647,0,0,1,1,2,2,3,3,4,4,5,5,6,6,7,7,8,8,9,9,10,10,13,13,14,14],"right_children":[2,4,6,8,10,12,14,16,18,20,22,-1,-1,24,26,-1,-1,-1,-1,-1,-1,-1,-1,-1,-1,-1,-1],"split_conditions":[2.42179E4,9.075001E0,3.490615E4,6.26154E3,1.3128838E1,5E-1,2.051727E0,7.98E1,3.275595E3,5.6030003E1,1.014978E2,-2.1828285E-1,-6.554739E-2,3.070343E0,1.0802465E1,-5.792781E-3,-1.8933658E-1,1.908023E-1,-6.728654E-2,3.4019154E-1,8.36988E-2,-1.4436041E-1,1.8088563E-1,-1.6924654E-3,1.7887907E-1,-1.1492133E-1,6.289314E-2],"split_indices":[2,0,2,2,12,22,13,1,1,1,18,0,0,12,11,0,0,0,0,0,0,0,0,0,0,0,0],"split_type":[0,0,0,0,0,0,0,0,0,0,0,0,0,0,0,0,0,0,0,0,0,0,0,0,0,0,0],"sum_hessian":[6.723403E1,2.935904E1,3.787499E1,1.960049E1,9.75855E0,3.4119258E0,3.4463062E1,1.4579034E1,5.0214562E0,6.3054094E0,3.45314E0,2.2239432E0,1.1879826E0,2.373596E1,1.0727103E1,1.1456208E1,3.122826E0,3.3431454E0,1.6783109E0,2.38196E0,3.9234498E0,2.1927195E0,1.2604206E0,1.9732435E1,4.0035257E0,8.987736E0,1.7393682E0],"tree_param":{"num_deleted":"0","num_feature":"43","num_nodes":"27","size_leaf_vector":"0"}},